{"net.0.weight": [[1.6900734901428223, -1.0199553966522217, 0.896260142326355, -0.18587423861026764, -4.15772008895874, 1.0392118692398071, -0.20763260126113892, 8.202040672302246, 3.001995801925659], [0.9844546318054199, -1.541871428489685, 0.34110620617866516, -0.7096854448318481, -4.7721028327941895, 1.8298454284667969, -0.8562697172164917, 8.477677345275879, 4.109234809875488], [0.5541707873344421, -0.9205443263053894, -1.1573256254196167, -0.7714571952819824, -5.918160438537598, 1.4641084671020508, -0.20437999069690704, 8.684907913208008, 5.591010093688965], [2.986767292022705, -1.3771404027938843, 1.4839953184127808, 1.1838188171386719, -2.9408352375030518, -0.8000912666320801, 1.074367880821228, 8.49201774597168, 1.0541951656341553], [1.0120981931686401, -1.1890954971313477, -0.5316875576972961, -0.44257059693336487, -5.156754016876221, 1.677292823791504, -0.7095898389816284, 8.52945613861084, 4.2276930809021], [1.4081919193267822, -1.3765209913253784, -0.6038956642150879, -0.7570422291755676, -5.177023410797119, 2.122753858566284, -0.35411137342453003, 8.48251724243164, 4.582345485687256], [1.3705118894577026, -1.575775384902954, 0.12556739151477814, -0.38548222184181213, -4.642276287078857, 1.1626017093658447, -0.3514649271965027, 8.681097984313965, 3.9909698963165283], [0.9766200184822083, -1.4892815351486206, -0.2910671830177307, -0.4585549533367157, -4.6080217361450195, 1.7546747922897339, -0.6457839608192444, 8.623173713684082, 3.8240365982055664], [0.8736034631729126, -0.7473066449165344, -0.6425159573554993, 0.015025274828076363, -5.317812919616699, 1.0798888206481934, -0.18114730715751648, 8.637353897094727, 4.803661823272705], [2.739746570587158, -1.6844886541366577, 1.546085000038147, 1.6497758626937866, -3.1926963329315186, -1.1568934917449951, 0.9415083527565002, 8.28048324584961, 0.6447799205780029], [1.4258173704147339, -1.2617441415786743, -0.5647785663604736, -0.44490864872932434, -4.887823581695557, 1.4142210483551025, -0.570911705493927, 8.663386344909668, 4.532533168792725], [1.4147427082061768, -1.5411425828933716, 0.20340028405189514, -0.4811197817325592, -4.763892650604248, 1.32077956199646, -0.33507999777793884, 8.465450286865234, 4.18135404586792], [1.25661301612854, -1.4663079977035522, 0.29442092776298523, -0.4601213037967682, -5.202258586883545, 1.380179762840271, -0.9431881904602051, 8.41507339477539, 4.281747817993164], [1.2881484031677246, -1.1970069408416748, -0.819844663143158, -0.38117003440856934, -5.494731426239014, 1.5885522365570068, -0.7096508145332336, 8.173636436462402, 4.460631370544434], [3.056286573410034, -2.1365203857421875, 1.7278904914855957, 1.1021186113357544, -2.9562466144561768, -1.0592029094696045, 1.4664255380630493, 8.272871017456055, 0.5228027701377869], [1.320953130722046, -0.9890263080596924, 0.5640348792076111, -0.04707206413149834, -4.1526198387146, 1.066062092781067, -0.792657196521759, 8.35030746459961, 3.4154880046844482], [1.1545568704605103, -1.3076350688934326, -0.5069706439971924, -0.2658975124359131, -4.877690315246582, 1.7249634265899658, -0.5540329813957214, 8.656878471374512, 4.3157267570495605], [1.0472103357315063, -1.6848626136779785, 0.3162589967250824, -0.4642147123813629, -4.787411212921143, 1.3511003255844116, -0.5016956925392151, 8.24118709564209, 3.69997239112854], [1.3259693384170532, -1.7118765115737915, 0.36651304364204407, -0.2799484133720398, -4.4073686599731445, 1.0980192422866821, -0.6428090333938599, 8.557902336120605, 4.0759124755859375], [0.9801512956619263, -1.3866298198699951, -0.5210494995117188, -0.5265886187553406, -5.258975028991699, 1.68904709815979, -0.696052610874176, 8.29092025756836, 3.98276686668396], [1.1947706937789917, -1.3496932983398438, -0.3533642292022705, -0.5308129191398621, -4.9483184814453125, 1.758286714553833, -0.4649538993835449, 8.50225830078125, 4.07309627532959], [-1.4435746669769287, 0.039467647671699524, -1.2205736637115479, 9.796137809753418, -1.8627210855484009, -4.369921684265137, -3.013476848602295, -4.795557022094727, 1.8906186819076538], [1.0179418325424194, -1.4552862644195557, 0.4016476273536682, 0.09543406963348389, -4.532660484313965, 0.933994710445404, -0.41677677631378174, 8.414937973022461, 4.131031513214111], [2.9588253498077393, -1.5617022514343262, 1.659765362739563, 1.214762806892395, -3.490842580795288, -0.8458902835845947, 0.6910209655761719, 8.193338394165039, 0.7786967158317566], [1.1132525205612183, -1.800591230392456, 0.6197648644447327, -0.1516801118850708, -4.348178863525391, 1.024277687072754, -0.5931432247161865, 8.373144149780273, 3.7615272998809814], [1.0668314695358276, -19.535991668701172, -7.0157670974731445, 12.854665756225586, -24.347164154052734, 7.132259368896484, -8.949295997619629, 28.864152908325195, -0.31385737657546997], [0.9629247188568115, -1.626222848892212, 0.4647420644760132, -0.7069112062454224, -4.389858722686768, 1.3294909000396729, -0.48242563009262085, 8.356291770935059, 3.7381432056427], [1.3471615314483643, -1.2693718671798706, -0.07752768695354462, -0.4385131001472473, -5.591919422149658, 1.6506556272506714, -0.8670210838317871, 8.251909255981445, 4.706197261810303], [0.2684573829174042, -0.8524196743965149, -1.3054847717285156, -0.976285994052887, -5.987049579620361, 1.4977070093154907, -0.4754883050918579, 8.535279273986816, 5.4723310470581055], [1.02565598487854, -1.487341046333313, 0.16592197120189667, -0.3167914152145386, -4.431432723999023, 1.070501685142517, -0.4079573154449463, 8.254964828491211, 3.4902729988098145], [3.3511149883270264, -1.5667539834976196, 1.6650162935256958, 1.5763678550720215, -3.4667255878448486, -1.1579829454421997, 1.0861388444900513, 8.847527503967285, 0.6487301588058472], [-1.2870755195617676, 0.31134867668151855, -1.0433145761489868, 9.530001640319824, -1.6017711162567139, -4.096394062042236, -2.6582038402557373, -4.6526641845703125, 1.9776735305786133], [1.2503820657730103, -0.964546799659729, 0.40373751521110535, -0.0487365685403347, -4.0337347984313965, 0.9993390440940857, -0.28338855504989624, 8.454241752624512, 3.034879446029663], [1.2777225971221924, -1.5730931758880615, 0.09993501752614975, -0.3904831111431122, -4.945188045501709, 1.5604243278503418, -0.8563565015792847, 8.70412540435791, 4.3809614181518555], [1.0601458549499512, -1.2943638563156128, 0.07448000460863113, -0.7763550877571106, -5.118719100952148, 1.631620168685913, -0.43946900963783264, 8.549739837646484, 4.232529163360596], [2.868039608001709, -1.8379970788955688, 2.0302536487579346, 1.2448289394378662, -2.795292377471924, -1.1627681255340576, 1.202945351600647, 8.469818115234375, 0.4323717951774597], [0.8908780813217163, -1.390417456626892, -0.0013796441489830613, -0.17755869030952454, -5.285305023193359, 1.4921621084213257, -0.762802004814148, 8.458675384521484, 4.150392055511475], [0.9409776329994202, -1.2635560035705566, 0.11337991058826447, -0.5476788878440857, -5.029891490936279, 1.518397569656372, -0.4338742792606354, 8.807632446289062, 4.151444435119629], [0.7600991129875183, -1.2746013402938843, -0.6397570371627808, -0.39670827984809875, -5.62309455871582, 2.0288608074188232, -0.7104579210281372, 8.49791145324707, 4.645076751708984], [0.8750355839729309, -1.561597228050232, 0.5348588824272156, -0.2015228122472763, -4.988864421844482, 1.1783241033554077, -0.8582302331924438, 8.403655052185059, 4.000411510467529], [1.0134261846542358, -1.1950404644012451, -0.4953453242778778, -0.3272051513195038, -5.249630451202393, 2.0722837448120117, -0.2946374714374542, 8.737037658691406, 4.404358863830566], [1.308105230331421, -1.605510950088501, 0.7339130640029907, -0.1471160352230072, -4.176583290100098, 0.9754505753517151, -0.3997161090373993, 8.36381721496582, 3.512437582015991], [0.952686607837677, -1.4052382707595825, -0.34966421127319336, -0.2953999936580658, -5.585874080657959, 1.6736671924591064, -1.0790867805480957, 8.252701759338379, 4.543728351593018], [2.7725870609283447, -1.8623379468917847, 1.975651741027832, 1.7228175401687622, -2.9473743438720703, -1.1023001670837402, 1.129399061203003, 8.754823684692383, 0.42053574323654175], [1.1693867444992065, -1.3732868432998657, 0.08925144374370575, -0.3226540684700012, -5.666714191436768, 1.9211384057998657, -0.8836463689804077, 8.03243350982666, 4.5166916847229], [1.5173386335372925, -1.3553334474563599, -0.08478596061468124, -0.31345176696777344, -5.701535701751709, 1.744606375694275, -0.5218257308006287, 8.003060340881348, 4.676815986633301], [-1.3363651037216187, 0.2806652784347534, -1.0517810583114624, 9.755990028381348, -1.4352843761444092, -3.840679168701172, -2.4599339962005615, -4.433603763580322, 2.034864664077759], [3.2377302646636963, -1.7176992893218994, 1.3907513618469238, 1.4552291631698608, -2.998807907104492, -1.5101878643035889, 1.4754832983016968, 8.415483474731445, 0.8874978423118591], [0.9526673555374146, -1.6808463335037231, 0.8585420846939087, -0.23608872294425964, -4.161742210388184, 0.9829035401344299, -0.22154392302036285, 8.436833381652832, 3.5797948837280273], [1.1254700422286987, -0.9717320799827576, 0.4487093985080719, -0.5298125743865967, -5.396318435668945, 1.6218920946121216, -0.6903783082962036, 8.116101264953613, 4.394794940948486], [0.7689008116722107, 0.12459424883127213, -0.053987473249435425, 0.4919089078903198, -4.414613246917725, -0.1180860698223114, -0.4678681492805481, 8.531862258911133, 3.315333604812622], [0.9787989258766174, -1.495208501815796, 0.46253421902656555, -0.02142057754099369, -4.561077117919922, 1.2238355875015259, -0.9021875262260437, 8.643606185913086, 4.131763935089111], [3.1009931564331055, -2.0974478721618652, 1.8522651195526123, 1.5497771501541138, -2.980950355529785, -1.110411286354065, 1.3166157007217407, 9.02032470703125, 0.3170605003833771], [1.1035771369934082, -1.5698026418685913, 0.5102997422218323, 0.1485494077205658, -4.524654865264893, 0.9486647844314575, -0.3150739073753357, 8.59792709350586, 3.4668493270874023], [1.1471638679504395, -1.418541669845581, -0.23659084737300873, -0.6020625233650208, -5.4041547775268555, 1.8402704000473022, -0.5299660563468933, 8.16578197479248, 4.216001510620117], [3.1791067123413086, -1.8122174739837646, 2.2064523696899414, 1.4904365539550781, -3.737993001937866, -1.3465471267700195, 1.2587593793869019, 8.981500625610352, 0.18154193460941315], [2.551197052001953, -1.4332616329193115, 1.4298045635223389, 1.1186436414718628, -2.593726634979248, -0.20448125898838043, 0.7287981510162354, 7.872028350830078, 1.2771049737930298], [0.8460589051246643, -0.9309847354888916, -0.2580491304397583, -0.17348508536815643, -4.547902584075928, 0.5639331340789795, 0.06436242908239365, 8.274043083190918, 3.804680347442627], [1.3510698080062866, -1.2121341228485107, -0.3923651874065399, -0.9326656460762024, -5.738655090332031, 2.0352861881256104, -0.726759135723114, 7.915051460266113, 4.763771057128906], [1.0645304918289185, -1.361280083656311, -0.47741812467575073, -0.5016048550605774, -5.394680500030518, 1.966300129890442, -0.8601256012916565, 8.629438400268555, 4.616554260253906], [1.0378907918930054, -0.6519523859024048, -0.043858252465724945, -0.4537016749382019, -4.7758612632751465, 1.2610156536102295, -0.3558802902698517, 8.511858940124512, 4.107752323150635], [1.3968791961669922, -1.486384630203247, 0.6675603985786438, -0.19479456543922424, -4.407685279846191, 1.1666444540023804, -0.43565887212753296, 8.324627876281738, 3.888735771179199], [-1.4753700494766235, -0.03106585517525673, -1.2345246076583862, 9.512097358703613, -2.182276725769043, -4.654033660888672, -3.1825428009033203, -5.104039192199707, 1.7188987731933594], [14.2171630859375, -14.19881820678711, -5.347936630249023, 2.6762983798980713, -35.842124938964844, 5.561213493347168, -10.18836784362793, 18.65276527404785, 16.648468017578125]], "net.0.bias": [8.98436164855957, 8.540157318115234, 7.649555683135986, 9.881733894348145, 8.254743576049805, 8.35689640045166, 8.368635177612305, 8.007230758666992, 7.550842761993408, 9.6246976852417, 8.01049518585205, 8.060935020446777, 8.359243392944336, 8.055861473083496, 9.762467384338379, 8.257112503051758, 7.996722221374512, 8.300447463989258, 8.21528434753418, 8.11568546295166, 8.033344268798828, 10.684013366699219, 7.756425380706787, 9.621524810791016, 7.919704914093018, 0.36041802167892456, 8.510865211486816, 8.323987007141113, 7.556575775146484, 8.183318138122559, 9.912952423095703, 9.9959077835083, 8.749606132507324, 8.297388076782227, 8.634385108947754, 9.871027946472168, 8.029708862304688, 8.533529281616211, 8.149484634399414, 8.212505340576172, 8.203837394714355, 7.944263458251953, 8.446145057678223, 9.744202613830566, 8.237432479858398, 8.07789421081543, 9.854168891906738, 10.115835189819336, 8.333508491516113, 8.533881187438965, 6.490083694458008, 7.96176290512085, 9.884175300598145, 8.204498291015625, 8.22480583190918, 9.926980972290039, 9.518928527832031, 8.258320808410645, 8.850591659545898, 8.6150484085083, 8.186378479003906, 7.8761444091796875, 10.702293395996094, 0.5810561776161194], "net.2.weight": [[7.160984516143799, 6.553295612335205, 5.946706771850586, 8.182333946228027, 6.999294757843018, 6.542575359344482, 6.8114848136901855, 6.573227405548096, 6.539336204528809, 8.369852066040039, 6.473184108734131, 6.484644889831543, 7.0612688064575195, 6.60373592376709, 8.249886512756348, 6.9930033683776855, 6.505638122558594, 6.582179546356201, 6.7069220542907715, 6.880934715270996, 6.733008861541748, 12.520130157470703, 6.462290287017822, 8.344143867492676, 6.39714241027832, -43.946258544921875, 6.5645856857299805, 6.978717803955078, 5.734936237335205, 6.594244003295898, 9.059147834777832, 11.952393531799316, 7.045995712280273, 6.8384928703308105, 6.867154121398926, 8.4483003616333, 6.794575214385986, 7.078810691833496, 6.672026634216309, 6.879948139190674, 6.8123321533203125, 6.764385223388672, 6.698500633239746, 8.62405776977539, 6.7784037590026855, 6.8378682136535645, 12.815255165100098, 8.773334503173828, 6.786558628082275, 6.849643230438232, 6.228599548339844, 6.584968090057373, 8.594806671142578, 6.955089092254639, 6.566468715667725, 9.394558906555176, 7.163999080657959, 6.9151387214660645, 6.758853435516357, 6.76798152923584, 6.799015998840332, 6.604119300842285, 13.391149520874023, -42.828433990478516], [-0.07577411085367203, -0.11220945417881012, -0.0716005265712738, -0.02190975472331047, 0.06766024231910706, -0.12293500453233719, -0.14198987185955048, 0.08600128442049026, 0.06414613127708435, -0.17101170122623444, -0.09934240579605103, 0.02783099375665188, -0.06378920376300812, -0.09648478776216507, 0.03178475797176361, -0.13408729434013367, 0.0956513062119484, 0.03820614889264107, -0.003877247218042612, -0.11646506935358047, 0.06894433498382568, -0.14588607847690582, 0.04902704805135727, -0.030059324577450752, 0.0070379856042563915, -0.053503356873989105, -0.06526431441307068, 0.03408949077129364, -0.18090078234672546, -0.10358370095491409, -0.06022128835320473, -0.06118717044591904, 0.05075516179203987, 0.04381326586008072, -0.09952516108751297, 0.07290305942296982, 0.056942686438560486, -0.007466442417353392, -0.1310516893863678, 0.08275263011455536, -0.04233945533633232, -0.05360644683241844, -0.05924256145954132, -0.1176970899105072, 0.056179292500019073, 0.04479573667049408, -0.02260400727391243, 0.02983805164694786, -0.0036205046344548464, -0.003718480234965682, -0.03445395827293396, -0.00184391881339252, -0.11443987488746643, 0.017385434359312057, -0.021738596260547638, -0.1486705243587494, 0.03471997752785683, 0.020178500562906265, -0.0056483205407857895, -0.06130346283316612, -0.10000968724489212, -0.0900995135307312, 0.08343777060508728, -0.1771697998046875], [0.299486368894577, -0.6095709800720215, -1.6981072425842285, 2.6573221683502197, -1.5334850549697876, -2.1016204357147217, -0.19761914014816284, -0.8811047673225403, -0.6970994472503662, 3.113994836807251, -0.8949934840202332, -0.2838901877403259, -0.7021020650863647, -1.948536992073059, 3.5164709091186523, 0.040196213871240616, -1.0393778085708618, -0.33819714188575745, 0.1369461715221405, -1.6992522478103638, -1.4630142450332642, 7.712157726287842, 0.4109378159046173, 2.537679672241211, 0.7041112780570984, -12.670907020568848, -0.13484494388103485, -1.5838772058486938, -2.1538643836975098, 0.1978326141834259, 2.8504130840301514, 7.321278095245361, 0.16542421281337738, -0.8859165906906128, -1.0625979900360107, 3.7269511222839355, -0.8653266429901123, -0.681294858455658, -1.9561678171157837, 0.027641095221042633, -1.62594735622406, 0.5409043431282043, -1.0564450025558472, 3.4342076778411865, -1.646221399307251, -1.323406457901001, 7.526186466217041, 3.178460121154785, 0.7217472791671753, -1.069029688835144, 0.1786433607339859, 0.1641610860824585, 3.8341870307922363, 0.32635805010795593, -1.337701678276062, 3.5218424797058105, 2.414896011352539, -0.11700332164764404, -1.9752839803695679, -1.5830856561660767, -0.6771031022071838, 0.1198551207780838, 7.511815547943115, -25.24542999267578], [6.7833571434021, 6.1651129722595215, 5.787561416625977, 7.84661865234375, 6.678300857543945, 6.278146266937256, 6.559504985809326, 6.315380573272705, 6.1626505851745605, 8.099540710449219, 6.161674976348877, 6.224158763885498, 6.590114593505859, 6.297393321990967, 7.989985466003418, 6.529191970825195, 6.215880393981934, 6.304539203643799, 6.4055399894714355, 6.460546493530273, 6.559484481811523, 12.253253936767578, 6.051856517791748, 7.6378493309021, 6.129122734069824, -44.45173263549805, 6.25970458984375, 6.44174861907959, 5.642505168914795, 6.447248458862305, 8.662562370300293, 11.761792182922363, 6.718226909637451, 6.408614635467529, 6.581607341766357, 8.010866165161133, 6.422994136810303, 6.620403289794922, 6.448538780212402, 6.398941516876221, 6.3454413414001465, 6.336896896362305, 6.403586387634277, 8.280640602111816, 6.312831878662109, 6.3422722816467285, 12.616294860839844, 8.296246528625488, 6.476691246032715, 6.416778087615967, 6.071889877319336, 6.382418632507324, 8.343792915344238, 6.739573001861572, 6.329347610473633, 8.91885757446289, 7.005903244018555, 6.485116958618164, 6.402885913848877, 6.360891342163086, 6.32416296005249, 6.396588325500488, 13.26024341583252, -43.63726806640625], [7.3198676109313965, 6.500772953033447, 5.992613315582275, 8.092432975769043, 6.983556270599365, 6.837584972381592, 7.05476188659668, 6.80464506149292, 6.601210594177246, 8.379359245300293, 6.504785537719727, 6.65192985534668, 7.234574794769287, 6.826832294464111, 8.118143081665039, 6.968474388122559, 6.782296657562256, 6.855119228363037, 6.850674152374268, 7.183038234710693, 7.119912624359131, 11.410317420959473, 6.675098419189453, 8.399221420288086, 6.6498284339904785, -44.114891052246094, 6.564489841461182, 7.173780918121338, 6.118905544281006, 6.765873908996582, 9.000557899475098, 11.058171272277832, 7.088747978210449, 6.895909309387207, 6.9915361404418945, 8.465118408203125, 7.174872875213623, 6.97965669631958, 7.035745143890381, 6.902581214904785, 6.866928577423096, 6.967482089996338, 6.964433670043945, 8.524587631225586, 7.050255298614502, 7.080721855163574, 11.71071720123291, 8.450033187866211, 6.920100212097168, 6.9573073387146, 6.150842666625977, 6.85973596572876, 8.71288776397705, 7.188043117523193, 6.798207759857178, 9.29686450958252, 7.463531017303467, 6.657960414886475, 6.902681827545166, 6.9985575675964355, 6.849240779876709, 6.942323684692383, 12.335339546203613, -42.61408996582031], [6.491878509521484, 5.993725299835205, 5.901376724243164, 7.641017913818359, 6.2621564865112305, 6.092090606689453, 6.146234035491943, 5.930383682250977, 6.253904819488525, 7.6643524169921875, 6.331791400909424, 6.211938381195068, 6.2218756675720215, 6.145699977874756, 7.640067100524902, 6.092653751373291, 6.1472930908203125, 5.981009483337402, 5.908463478088379, 6.0542802810668945, 6.263767719268799, 12.880378723144531, 6.105391979217529, 7.328000068664551, 5.8232502937316895, -44.10329818725586, 6.010307788848877, 6.255386829376221, 5.593213081359863, 6.082552433013916, 8.414759635925293, 12.328566551208496, 6.64184045791626, 6.086660385131836, 6.308191776275635, 7.799643516540527, 6.337183475494385, 6.444532871246338, 6.2322773933410645, 6.175261974334717, 6.257227897644043, 5.919957160949707, 5.964599609375, 7.895761013031006, 5.9282917976379395, 6.179100036621094, 13.283560752868652, 8.333874702453613, 6.041457653045654, 6.245853424072266, 5.752688407897949, 6.060619831085205, 7.990627765655518, 6.3911638259887695, 5.971394062042236, 8.43031120300293, 6.696383953094482, 6.487713813781738, 6.045684337615967, 6.039057731628418, 6.340500354766846, 5.927064895629883, 14.011110305786133, -43.80278396606445], [0.5878114700317383, -1.2024189233779907, -2.3658034801483154, 3.590968132019043, -1.2726534605026245, -2.4276938438415527, -0.40986961126327515, -1.1394740343093872, -0.8503924012184143, 4.84029483795166, -1.4086081981658936, -1.2499645948410034, -0.5702311992645264, -1.6498451232910156, 4.301948070526123, 0.3873225152492523, -1.1483298540115356, -0.46599459648132324, -0.15279972553253174, -1.3394699096679688, -1.5668951272964478, 22.626760482788086, -0.22664621472358704, 4.045173645019531, -0.3504362404346466, -28.399560928344727, -0.6663786172866821, -1.298050880432129, -2.4895639419555664, -0.30040931701660156, 5.296011924743652, 22.70806312561035, 0.6303572058677673, -0.7535147666931152, -1.2114160060882568, 4.758246421813965, -0.8002378940582275, -0.8187770843505859, -1.9210994243621826, -0.3478924036026001, -1.7578766345977783, -0.10856124758720398, -1.0891064405441284, 5.1640849113464355, -1.2932618856430054, -1.4437427520751953, 22.66657829284668, 4.546346187591553, -0.029293477535247803, -0.86452317237854, 1.097245454788208, -0.20533917844295502, 5.542381286621094, 0.4289790093898773, -1.7842332124710083, 5.712099552154541, 2.8639910221099854, -0.4537504017353058, -2.1355254650115967, -1.5065783262252808, -1.0038650035858154, -0.39587631821632385, 23.749725341796875, -40.970252990722656], [0.2617422342300415, -0.9941474199295044, -1.3171463012695312, 3.255239248275757, -1.2533419132232666, -1.5691241025924683, -0.1660323292016983, -0.7853546142578125, -0.567314088344574, 3.5966763496398926, -0.8919056057929993, -0.5169134140014648, -0.8649246692657471, -1.7229772806167603, 3.9544003009796143, -0.3492633104324341, -0.8906522393226624, -0.2590208053588867, -0.132902130484581, -1.2975252866744995, -1.171680212020874, 21.69843101501465, -0.07492731511592865, 2.744342088699341, -0.11225166916847229, -29.291576385498047, -0.27942386269569397, -1.4218041896820068, -1.6746342182159424, -0.12691397964954376, 3.783580780029297, 20.529170989990234, 0.15873563289642334, -0.9527014493942261, -0.9207249283790588, 4.021307945251465, -0.9960355162620544, -0.6221861839294434, -1.616003394126892, -0.5805947184562683, -1.208881139755249, 0.22760611772537231, -1.3656671047210693, 4.060609340667725, -1.5887198448181152, -1.2237905263900757, 21.93977928161621, 4.325063228607178, 0.3173817992210388, -1.0589802265167236, 0.19134481251239777, -0.38627272844314575, 4.243513584136963, 0.353060781955719, -1.1937892436981201, 4.332756996154785, 2.359860897064209, 0.26680856943130493, -1.6948741674423218, -1.485291838645935, -0.6840724945068359, -0.0883622094988823, 21.14550018310547, -42.30681610107422], [1.975982427597046, -1.8477345705032349, -2.8791935443878174, 6.794892311096191, -1.4999845027923584, -2.7309648990631104, -0.6738329529762268, -1.497776746749878, -1.45262610912323, 8.547384262084961, -2.1259946823120117, -1.7730565071105957, -1.0250002145767212, -2.3790292739868164, 8.606088638305664, 0.2174203097820282, -1.4983958005905151, -0.44671106338500977, -0.8280180096626282, -1.4291510581970215, -1.3664387464523315, 26.25174903869629, -1.4998244047164917, 7.387274265289307, -1.2031090259552002, -17.62301254272461, -0.7131752967834473, -1.8936033248901367, -4.048776149749756, -0.14613977074623108, 9.92090892791748, 25.98804473876953, 1.57881498336792, -1.2273235321044922, -1.1955406665802002, 7.966697692871094, -1.3637241125106812, -1.040290355682373, -3.026613235473633, -1.1790601015090942, -2.113147735595703, -0.3666146397590637, -1.3210091590881348, 8.956032752990723, -1.9278831481933594, -1.4296467304229736, 26.97776985168457, 10.194711685180664, -0.4405267536640167, -0.614973783493042, -1.1629164218902588, -1.3844316005706787, 9.774712562561035, 0.16592459380626678, -1.8552929162979126, 10.877872467041016, 4.998812198638916, 0.8929884433746338, -2.0825839042663574, -1.842254638671875, -1.1410619020462036, -0.7046365737915039, 28.397064208984375, -22.888900756835938], [7.001479625701904, 6.397089004516602, 5.96688985824585, 8.079259872436523, 6.791642665863037, 6.656601905822754, 6.750443458557129, 6.664036750793457, 6.47568941116333, 8.09598159790039, 6.528061389923096, 6.563663005828857, 6.878573894500732, 6.576745986938477, 8.1953125, 6.883068084716797, 6.760927200317383, 6.632274627685547, 6.552858829498291, 6.814010143280029, 6.91522216796875, 11.650888442993164, 6.381880760192871, 8.110294342041016, 6.427323341369629, -44.2310791015625, 6.5609540939331055, 6.851504325866699, 5.915160655975342, 6.596340656280518, 8.765361785888672, 11.436736106872559, 6.981131076812744, 6.695345401763916, 6.6910834312438965, 8.30730152130127, 6.831288814544678, 6.911801815032959, 6.626314640045166, 6.717541217803955, 6.7042646408081055, 6.730445861816406, 6.476648807525635, 8.396753311157227, 6.709870338439941, 6.783168792724609, 12.249752044677734, 8.68962287902832, 6.712717056274414, 6.739879131317139, 5.942047595977783, 6.543929100036621, 8.621557235717773, 6.976508617401123, 6.58686637878418, 9.171353340148926, 7.297103404998779, 6.711965560913086, 6.716227054595947, 6.736224174499512, 6.498050212860107, 6.702920436859131, 12.790305137634277, -43.45553207397461], [7.28518009185791, 6.5075249671936035, 5.849534511566162, 8.284834861755371, 7.034824371337891, 6.627963542938232, 6.818963050842285, 6.554764270782471, 6.507307052612305, 8.252693176269531, 6.329925060272217, 6.583946228027344, 7.028435230255127, 6.606462478637695, 8.203405380249023, 6.899135589599609, 6.5621232986450195, 6.7458062171936035, 6.754451751708984, 6.8456878662109375, 6.706886291503906, 12.098221778869629, 6.318566799163818, 8.39840316772461, 6.501717567443848, -43.83872985839844, 6.495050430297852, 6.963265895843506, 5.849169731140137, 6.725437164306641, 9.115694046020508, 11.64049243927002, 7.028231620788574, 6.878124713897705, 6.814452648162842, 8.41523551940918, 6.801477432250977, 6.996641159057617, 6.637839317321777, 6.894095420837402, 6.664498805999756, 6.787367343902588, 6.664782524108887, 8.654751777648926, 7.0469651222229, 6.966808795928955, 12.36512565612793, 8.683436393737793, 6.673702716827393, 6.98070764541626, 6.382889270782471, 6.75814151763916, 8.783106803894043, 7.12555456161499, 6.686733245849609, 9.439643859863281, 7.376156806945801, 6.709253787994385, 6.751525402069092, 6.981764793395996, 6.7538580894470215, 6.728446006774902, 13.139941215515137, -42.40974426269531], [7.194702625274658, 6.472139835357666, 5.943280220031738, 8.19560718536377, 6.971390247344971, 6.666813373565674, 6.772193908691406, 6.534869194030762, 6.58267068862915, 8.116189956665039, 6.5199294090271, 6.5957794189453125, 6.948013782501221, 6.757368564605713, 8.106484413146973, 6.898166179656982, 6.705175876617432, 6.653481483459473, 6.713873863220215, 6.853579521179199, 6.860978603363037, 11.877498626708984, 6.29231071472168, 8.006855010986328, 6.392549991607666, -44.40366744995117, 6.480013370513916, 6.899978160858154, 5.939207553863525, 6.600430011749268, 8.845650672912598, 11.425708770751953, 7.085246562957764, 6.768443584442139, 6.805971622467041, 8.31112289428711, 6.847721099853516, 6.9534406661987305, 6.753796100616455, 6.534649848937988, 6.86363410949707, 6.827273845672607, 6.737827777862549, 8.512785911560059, 6.6283698081970215, 6.7205305099487305, 12.432268142700195, 8.625238418579102, 6.74556827545166, 6.939437389373779, 6.074790954589844, 6.679833889007568, 8.685505867004395, 7.018771171569824, 6.6690239906311035, 9.101527214050293, 7.2583231925964355, 6.705050468444824, 6.72843074798584, 6.907647132873535, 6.643011569976807, 6.578742504119873, 13.08398151397705, -43.31661605834961], [7.313665866851807, 6.591246128082275, 6.06525993347168, 8.15819263458252, 6.992648124694824, 6.691719055175781, 6.994517803192139, 6.625185012817383, 6.401230812072754, 8.202939987182617, 6.738597869873047, 6.732608795166016, 6.912096977233887, 6.597569942474365, 8.255764961242676, 6.891327857971191, 6.624943733215332, 6.681816101074219, 6.637252330780029, 6.703124046325684, 6.762872695922852, 11.870014190673828, 6.412529468536377, 8.258321762084961, 6.578206539154053, -44.11458206176758, 6.482974529266357, 6.880321979522705, 5.949289798736572, 6.687742710113525, 8.92502498626709, 11.54572868347168, 7.129673480987549, 6.841132640838623, 6.822530746459961, 8.376849174499512, 6.705624580383301, 6.879862308502197, 6.878461837768555, 6.73231840133667, 6.634390354156494, 6.615501403808594, 6.674792289733887, 8.61939525604248, 6.80845832824707, 6.793245315551758, 12.36852741241455, 8.65999984741211, 6.659135818481445, 6.889929294586182, 6.093430519104004, 6.666367530822754, 8.627893447875977, 7.05449104309082, 6.545340538024902, 9.152022361755371, 7.276329040527344, 6.70792293548584, 6.8203511238098145, 6.9492950439453125, 6.806440353393555, 6.628852367401123, 13.010404586791992, -43.37065124511719], [7.281978130340576, 6.490768909454346, 5.995140552520752, 8.341169357299805, 6.866086006164551, 6.644936561584473, 6.895655155181885, 6.652909755706787, 6.527532577514648, 8.190077781677246, 6.6393232345581055, 6.53870964050293, 6.823259353637695, 6.7858195304870605, 8.364752769470215, 6.96284294128418, 6.671722888946533, 6.682934761047363, 6.765285968780518, 6.731732368469238, 6.738590240478516, 11.97792911529541, 6.241640090942383, 8.214699745178223, 6.474918365478516, -44.2371940612793, 6.63252067565918, 6.935904026031494, 5.827935695648193, 6.665613174438477, 8.942798614501953, 11.549229621887207, 6.970398902893066, 6.932082176208496, 6.82169246673584, 8.406554222106934, 6.7146077156066895, 6.982609272003174, 6.618557929992676, 6.615228652954102, 6.799379825592041, 6.623104095458984, 6.618296146392822, 8.591522216796875, 6.817642688751221, 6.761036396026611, 12.353673934936523, 8.715808868408203, 6.665543556213379, 6.788550853729248, 6.090185642242432, 6.592780113220215, 8.67258358001709, 6.914754867553711, 6.628533363342285, 9.312359809875488, 7.312995910644531, 6.87746524810791, 6.72631311416626, 6.818177700042725, 6.6188530921936035, 6.720487594604492, 13.038743019104004, -43.31191635131836], [0.30307817459106445, -0.8772373795509338, -1.6952481269836426, 3.3227145671844482, -1.0370193719863892, -1.830040693283081, -0.2137073129415512, -0.8947506546974182, -0.682259738445282, 4.2399396896362305, -0.9515507221221924, -0.6905786991119385, -0.566819965839386, -1.5056605339050293, 4.018405437469482, 0.022673210129141808, -0.9405720829963684, -0.360358864068985, -0.08267203718423843, -1.251169204711914, -1.3375794887542725, 23.410228729248047, -0.11324529349803925, 3.3802168369293213, 0.14234526455402374, -31.274492263793945, -0.3197307586669922, -1.3997068405151367, -1.9881285429000854, -0.1236543282866478, 4.204311847686768, 22.240720748901367, 0.3763420283794403, -0.7489948868751526, -0.9728053212165833, 4.1943817138671875, -0.6404205560684204, -0.8301757574081421, -1.6649632453918457, -0.17268039286136627, -1.2957159280776978, 0.27193742990493774, -0.8753258585929871, 4.433300495147705, -1.2215656042099, -1.1220978498458862, 23.027231216430664, 4.083126068115234, 0.18069875240325928, -0.8970879912376404, 0.28110361099243164, -0.09025511890649796, 4.848076820373535, 0.35381704568862915, -1.460220217704773, 4.771615028381348, 2.5720362663269043, -0.2537365257740021, -1.8721035718917847, -1.2777925729751587, -0.8419228792190552, -0.09906057268381119, 24.04730224609375, -43.7276496887207], [5.897764682769775, 6.3730854988098145, 7.080829620361328, 3.870666027069092, 7.188384532928467, 7.643178462982178, 6.105909824371338, 6.5767011642456055, 6.505438804626465, 3.2670886516571045, 6.986332416534424, 6.148712635040283, 7.001993179321289, 8.042205810546875, 3.109069347381592, 5.961328506469727, 6.815186977386475, 5.978768348693848, 6.040760040283203, 7.436038494110107, 7.024722576141357, -6.9565534591674805, 5.588076114654541, 4.008440971374512, 5.400182723999023, 7.091341495513916, 5.694680213928223, 7.573572635650635, 7.660266399383545, 5.583547592163086, 3.9909746646881104, -6.896507740020752, 5.560179710388184, 6.794551372528076, 6.625010967254639, 2.980982542037964, 6.631853103637695, 6.442723274230957, 7.417762279510498, 6.1788249015808105, 6.983016490936279, 5.45814323425293, 7.133960723876953, 2.8935954570770264, 7.547928333282471, 7.169943332672119, -7.056307792663574, 3.627027750015259, 5.086945056915283, 7.000241756439209, 5.895694255828857, 5.940964221954346, 2.822082996368408, 5.492367744445801, 6.80726957321167, 3.3403754234313965, 3.6429615020751953, 5.846723556518555, 7.8900227546691895, 7.4983601570129395, 6.392946243286133, 5.855538845062256, -7.000509262084961, 27.973876953125], [7.14863395690918, 6.277289390563965, 5.95504093170166, 8.004819869995117, 6.830358982086182, 6.478534698486328, 6.743097305297852, 6.331027984619141, 6.534106254577637, 8.155841827392578, 6.426364898681641, 6.408196926116943, 6.762584209442139, 6.488260269165039, 8.01701831817627, 6.684817790985107, 6.481074810028076, 6.706466197967529, 6.725697040557861, 6.713037967681885, 6.600320339202881, 12.254792213439941, 6.388630390167236, 8.098347663879395, 6.390081882476807, -44.05965042114258, 6.317676544189453, 6.772365093231201, 5.85196590423584, 6.566594123840332, 8.93603229522705, 11.690009117126465, 7.055229663848877, 6.7600202560424805, 6.8225016593933105, 8.373015403747559, 6.82846212387085, 6.80495548248291, 6.435457229614258, 6.738090991973877, 6.569576263427734, 6.7224202156066895, 6.721761226654053, 8.441838264465332, 6.615749359130859, 6.700816631317139, 12.67323112487793, 8.656657218933105, 6.6196722984313965, 6.88837194442749, 6.188700199127197, 6.601077556610107, 8.627066612243652, 7.018555641174316, 6.5715765953063965, 9.134407997131348, 7.08917760848999, 6.822498798370361, 6.522983551025391, 6.7805562019348145, 6.597878932952881, 6.625611782073975, 13.209187507629395, -43.005348205566406], [6.31171989440918, 5.871862888336182, 5.810107707977295, 7.633223056793213, 6.231907367706299, 5.985713005065918, 6.176511287689209, 5.930810928344727, 6.1365766525268555, 7.655294895172119, 6.167079925537109, 5.926758289337158, 5.9903669357299805, 5.987267971038818, 7.57756233215332, 6.258819580078125, 5.941796779632568, 5.990664005279541, 5.819769859313965, 6.031174659729004, 6.147233009338379, 12.665459632873535, 5.9969282150268555, 7.362576484680176, 5.874871253967285, -44.239967346191406, 5.889904975891113, 6.021234512329102, 5.639566898345947, 6.019138813018799, 8.307522773742676, 12.158062934875488, 6.5464959144592285, 5.9889235496521, 6.036291599273682, 7.6592206954956055, 5.98379373550415, 6.251541614532471, 6.027700901031494, 5.871866226196289, 6.029774188995361, 5.997570037841797, 5.916372299194336, 7.844405651092529, 5.962496757507324, 5.83845329284668, 12.984027862548828, 8.04307746887207, 6.121108531951904, 5.88496732711792, 5.5517497062683105, 5.936696529388428, 8.0037202835083, 6.221081256866455, 5.826832294464111, 8.3994722366333, 6.774197101593018, 6.469583511352539, 5.786094665527344, 5.921717643737793, 6.108399868011475, 5.861727714538574, 13.612733840942383, -43.7386589050293], [-3.5202105045318604, -7.651925563812256, -9.502236366271973, 1.115829586982727, -7.279062271118164, -9.61423397064209, -5.291017055511475, -7.450380802154541, -7.785433292388916, 2.781751871109009, -8.211734771728516, -6.871539115905762, -6.393755912780762, -8.142252922058105, 3.120424747467041, -4.757175922393799, -7.529520034790039, -5.162900447845459, -5.147472381591797, -7.437958240509033, -7.337255477905273, 16.135025024414062, -6.010828971862793, 1.7465015649795532, -5.1696929931640625, 2.632068157196045, -5.718857765197754, -8.41636848449707, -9.828489303588867, -4.814178466796875, 4.183874607086182, 16.922332763671875, -3.8227875232696533, -6.6125168800354, -7.51849365234375, 2.807035446166992, -7.231191158294678, -6.97886848449707, -9.3385591506958, -6.5270094871521, -8.474934577941895, -4.317814350128174, -7.583244800567627, 3.546692132949829, -8.092822074890137, -7.814396858215332, 17.476646423339844, 4.093047618865967, -4.32250452041626, -6.8819966316223145, -5.8675127029418945, -6.295033931732178, 4.235550403594971, -4.081048011779785, -8.28750991821289, 5.293307781219482, -0.44375646114349365, -4.9232330322265625, -8.967438697814941, -8.137703895568848, -7.55665922164917, -5.041233539581299, 18.224197387695312, 3.47780442237854], [1.0396918058395386, -0.40807077288627625, -0.08585401624441147, 3.9947872161865234, -0.7182604074478149, -1.1260204315185547, 0.4196312129497528, -0.28739026188850403, 0.39311808347702026, 4.243960857391357, -0.3006899356842041, 0.13430160284042358, -0.25172343850135803, -1.2359764575958252, 4.469541072845459, 0.10767035186290741, -0.4914570152759552, 0.12317877262830734, 0.45698899030685425, -1.011073350906372, -0.6488575339317322, 21.011831283569336, 0.7000479102134705, 3.0713837146759033, 0.5422302484512329, -32.29676055908203, 0.31899598240852356, -0.908517599105835, -0.7090386152267456, 0.48468461632728577, 4.386658191680908, 19.964929580688477, 1.0980772972106934, -0.4188702702522278, -0.10761259496212006, 4.670022964477539, -0.2563409209251404, 0.2652285099029541, -1.054707407951355, 0.3032830059528351, -0.6110534071922302, 0.5772881507873535, -0.5294638872146606, 4.831878185272217, -1.064350962638855, -0.8164019584655762, 20.169645309448242, 5.242747783660889, 1.146643042564392, -0.5700079798698425, 1.0947577953338623, 0.09975380450487137, 4.898151874542236, 0.8048543334007263, -0.7790899276733398, 5.121757507324219, 2.8249144554138184, 1.2771761417388916, -1.2086278200149536, -0.8739473223686218, 0.42859527468681335, 0.14445608854293823, 22.160036087036133, -47.3054313659668], [7.231137752532959, 6.808427333831787, 6.1315507888793945, 8.248990058898926, 7.034120082855225, 6.9220685958862305, 7.084743022918701, 6.696333408355713, 6.619970798492432, 8.366305351257324, 6.6251397132873535, 6.782422065734863, 7.28676700592041, 6.958828926086426, 8.369173049926758, 7.066861152648926, 6.676666259765625, 6.883785247802734, 6.985831260681152, 6.990370273590088, 6.909846305847168, 11.570562362670898, 6.571066856384277, 8.384207725524902, 6.604646682739258, -43.97351837158203, 6.717617988586426, 7.139826774597168, 5.975196838378906, 6.890548229217529, 9.085395812988281, 11.125855445861816, 7.236077308654785, 7.094486713409424, 7.104511737823486, 8.560063362121582, 7.042709827423096, 7.085251331329346, 6.865312576293945, 6.846251010894775, 7.018383979797363, 6.86768913269043, 7.0394415855407715, 8.634075164794922, 7.0861005783081055, 7.107834815979004, 12.043703079223633, 8.626016616821289, 6.968369960784912, 7.058490753173828, 6.053839206695557, 6.819782733917236, 8.86953353881836, 7.083250045776367, 6.922529697418213, 9.377717018127441, 7.407567977905273, 6.819677352905273, 6.993102073669434, 7.118300437927246, 6.833967208862305, 6.916893482208252, 12.810440063476562, -43.09205627441406], [7.288555145263672, 6.502159595489502, 6.080203056335449, 8.142702102661133, 6.959259986877441, 6.787991046905518, 6.8396525382995605, 6.524043083190918, 6.62498140335083, 8.26085090637207, 6.410195350646973, 6.634583950042725, 6.909532070159912, 6.742112636566162, 8.218792915344238, 6.808794975280762, 6.720721244812012, 6.743806838989258, 6.792732238769531, 6.8279571533203125, 6.936343193054199, 12.06029987335205, 6.2959723472595215, 8.065193176269531, 6.442922592163086, -44.2554817199707, 6.566301345825195, 6.871922969818115, 5.935306549072266, 6.632123947143555, 8.900157928466797, 11.657440185546875, 7.025381088256836, 6.825582981109619, 6.954605579376221, 8.419833183288574, 6.796446323394775, 7.0334062576293945, 6.827983379364014, 6.738485813140869, 6.821598052978516, 6.691951751708984, 6.753545761108398, 8.393074035644531, 6.861169338226318, 6.731510162353516, 12.510282516479492, 8.768342971801758, 6.803121566772461, 6.946320056915283, 6.051799297332764, 6.662673473358154, 8.575122833251953, 6.9274139404296875, 6.638657569885254, 9.07417106628418, 7.408313751220703, 6.727769374847412, 6.627840042114258, 6.782800197601318, 6.620141983032227, 6.765279769897461, 13.37085247039795, -43.36360549926758], [-4.293437957763672, -7.560038089752197, -9.98569107055664, 0.29810091853141785, -7.588540554046631, -9.389782905578613, -5.421838760375977, -7.696324825286865, -8.605254173278809, 2.006716728210449, -7.977860927581787, -6.8173065185546875, -6.576491355895996, -8.2406005859375, 2.466909646987915, -4.885401725769043, -7.930059432983398, -5.665121555328369, -5.447394847869873, -7.966058731079102, -7.784337520599365, 16.28131103515625, -6.0247087478637695, 1.1549686193466187, -5.703113079071045, 2.5270164012908936, -5.776212692260742, -8.42933464050293, -9.837956428527832, -5.0664896965026855, 3.522080898284912, 17.1700382232666, -4.3334479331970215, -6.929372787475586, -7.940054893493652, 2.254014730453491, -7.618871688842773, -7.568976402282715, -9.673826217651367, -6.669484615325928, -8.758732795715332, -4.628368377685547, -7.86690616607666, 2.7429404258728027, -8.303211212158203, -8.31028938293457, 17.5085506439209, 3.586434841156006, -4.571782112121582, -6.884125232696533, -6.418192386627197, -6.529385566711426, 3.3993215560913086, -4.7248687744140625, -8.772396087646484, 4.701350212097168, -1.0718406438827515, -5.613321781158447, -8.660932540893555, -8.315902709960938, -8.1132230758667, -5.415287017822266, 18.561119079589844, 3.8183822631835938], [6.494998931884766, 6.028445243835449, 5.755101203918457, 7.608489990234375, 6.456117630004883, 5.949324131011963, 6.149847507476807, 6.154160022735596, 6.057548522949219, 7.864849090576172, 5.989777565002441, 6.0652899742126465, 6.314449310302734, 6.147741317749023, 7.714222431182861, 6.308170795440674, 6.266014099121094, 6.0024094581604, 6.2028422355651855, 6.35111665725708, 6.123699188232422, 12.234488487243652, 6.204261779785156, 7.531692028045654, 6.112760066986084, -43.982967376708984, 6.09035062789917, 6.198544502258301, 5.649643421173096, 6.241363048553467, 8.23757553100586, 11.948882102966309, 6.636923313140869, 6.095027923583984, 6.2273736000061035, 7.93024206161499, 6.357563495635986, 6.4525980949401855, 6.246347904205322, 6.177122592926025, 6.175707817077637, 6.154682636260986, 6.205338001251221, 8.156102180480957, 6.160515308380127, 6.109165668487549, 12.83549976348877, 8.158416748046875, 6.20713472366333, 6.153511047363281, 5.509632110595703, 6.236131191253662, 8.02287769317627, 6.443356990814209, 6.125414848327637, 8.665449142456055, 6.68794059753418, 6.393089771270752, 5.842040538787842, 6.197427749633789, 6.2385382652282715, 6.176811218261719, 13.4173583984375, -43.45492935180664], [7.253131866455078, 6.711594581604004, 6.152385234832764, 8.45128059387207, 7.0020575523376465, 6.852530002593994, 6.995492935180664, 6.658905506134033, 6.504215240478516, 8.432806015014648, 6.643531322479248, 6.812312126159668, 7.2184319496154785, 6.740459442138672, 8.26009464263916, 7.047239303588867, 6.60270357131958, 6.922072410583496, 6.937429428100586, 7.057557582855225, 6.788830757141113, 12.033042907714844, 6.606154918670654, 8.305737495422363, 6.720087051391602, -43.90521240234375, 6.610067844390869, 7.167232513427734, 5.98309850692749, 6.751446723937988, 9.037034034729004, 11.544183731079102, 7.158463954925537, 7.0265092849731445, 7.053892135620117, 8.532186508178711, 7.052120685577393, 7.131647109985352, 6.7656049728393555, 6.906548976898193, 6.817441940307617, 6.784008502960205, 6.892178535461426, 8.633269309997559, 6.9421210289001465, 6.924602508544922, 12.241530418395996, 8.755598068237305, 6.957606315612793, 7.096174716949463, 6.250885963439941, 6.805163383483887, 8.784143447875977, 7.145092964172363, 6.790188312530518, 9.397989273071289, 7.368090629577637, 6.796446800231934, 6.815128326416016, 7.0753493309021, 6.685218334197998, 6.766750812530518, 13.087587356567383, -42.975990295410156], [7.264666557312012, 6.43971061706543, 6.00627326965332, 8.282519340515137, 6.874886512756348, 6.697556018829346, 6.86414098739624, 6.669320106506348, 6.506318092346191, 8.280288696289062, 6.514608383178711, 6.749089241027832, 6.962141513824463, 6.629089832305908, 8.141236305236816, 6.979499816894531, 6.827300071716309, 6.895143508911133, 6.787938594818115, 7.01746129989624, 6.918800354003906, 12.032278060913086, 6.55548620223999, 8.150491714477539, 6.613162994384766, -44.03528594970703, 6.466038703918457, 7.024176597595215, 5.851749420166016, 6.686875820159912, 8.999482154846191, 11.616822242736816, 7.186992645263672, 6.914770603179932, 6.827265739440918, 8.369121551513672, 6.973205089569092, 7.074219703674316, 6.813988208770752, 6.74019193649292, 6.929206371307373, 6.693185806274414, 6.7790846824646, 8.685009956359863, 6.973739147186279, 6.863767147064209, 12.450010299682617, 8.699731826782227, 6.752919673919678, 6.964768409729004, 6.251216888427734, 6.687553405761719, 8.655917167663574, 7.050908088684082, 6.611095905303955, 9.313124656677246, 7.287968635559082, 6.822214126586914, 6.797062873840332, 6.90352201461792, 6.754315376281738, 6.822205543518066, 13.04133129119873, -42.60529708862305], [7.0726752281188965, 6.317383766174316, 5.9243340492248535, 8.165438652038574, 6.658417224884033, 6.524088382720947, 6.829998016357422, 6.457721710205078, 6.2810258865356445, 8.065301895141602, 6.352811336517334, 6.321298599243164, 6.630884170532227, 6.322686672210693, 8.03542709350586, 6.631389617919922, 6.547260284423828, 6.4828410148620605, 6.518022537231445, 6.592133522033691, 6.68437385559082, 12.258373260498047, 6.157675743103027, 7.921969890594482, 6.369802951812744, -44.36705780029297, 6.503846645355225, 6.769843578338623, 5.626947402954102, 6.57887077331543, 8.676225662231445, 11.822585105895996, 6.800865650177002, 6.715094089508057, 6.712419509887695, 8.087882041931152, 6.626068115234375, 6.830217361450195, 6.358768939971924, 6.632513999938965, 6.451366901397705, 6.581198692321777, 6.564327239990234, 8.45192813873291, 6.480737686157227, 6.525201797485352, 12.529003143310547, 8.518689155578613, 6.601789951324463, 6.68008279800415, 6.182916164398193, 6.444387912750244, 8.454978942871094, 6.96687126159668, 6.375527381896973, 9.101570129394531, 7.0400872230529785, 6.79531192779541, 6.610869884490967, 6.511239528656006, 6.3895440101623535, 6.51932954788208, 13.35653305053711, -43.4923095703125], [7.207867622375488, 6.533309459686279, 5.882960796356201, 8.310457229614258, 6.833714962005615, 6.553909778594971, 7.002938747406006, 6.475034713745117, 6.3130717277526855, 8.323747634887695, 6.5972981452941895, 6.61480712890625, 6.929563045501709, 6.657005310058594, 8.236370086669922, 7.022185325622559, 6.666260719299316, 6.755278587341309, 6.859257698059082, 6.778338432312012, 6.84545373916626, 12.011429786682129, 6.436081409454346, 8.134735107421875, 6.671134948730469, -43.767799377441406, 6.719005107879639, 7.022537708282471, 5.835669040679932, 6.646278381347656, 8.989011764526367, 11.653993606567383, 6.996695518493652, 6.893777370452881, 6.906977653503418, 8.346694946289062, 6.936653137207031, 6.909413814544678, 6.6352362632751465, 6.736299514770508, 6.6001691818237305, 6.713565349578857, 6.616739273071289, 8.610912322998047, 6.827922821044922, 6.799071311950684, 12.509466171264648, 8.63051700592041, 6.714920520782471, 6.954222679138184, 6.021621227264404, 6.606120586395264, 8.678457260131836, 7.082848072052002, 6.711194038391113, 9.349379539489746, 7.253220558166504, 6.698521137237549, 6.686701774597168, 6.878936290740967, 6.697436809539795, 6.6652326583862305, 13.246586799621582, -42.83491134643555], [2.0571625232696533, 2.0996479988098145, 2.222039222717285, 3.590242385864258, 1.0387526750564575, 1.4181101322174072, 1.861295461654663, 1.7811695337295532, 2.0108234882354736, 3.1171178817749023, 1.6437320709228516, 2.5009400844573975, 0.9981849789619446, 0.7147685885429382, 4.07112455368042, 1.2382689714431763, 1.4266221523284912, 1.9622491598129272, 2.017125368118286, 0.8901506066322327, 1.3006054162979126, 14.145391464233398, 2.568502426147461, 2.371751546859741, 2.7001256942749023, -37.620330810546875, 2.492828845977783, 0.7545134425163269, 1.6625638008117676, 2.2224907875061035, 2.82627010345459, 12.25796127319336, 2.095273494720459, 1.3117023706436157, 2.0021913051605225, 3.9228198528289795, 1.383803367614746, 2.016756534576416, 1.2441426515579224, 1.8943034410476685, 1.713735818862915, 2.4213359355926514, 0.8969592452049255, 3.620051860809326, 0.7745819687843323, 1.2047474384307861, 15.056775093078613, 4.186598777770996, 2.6428894996643066, 0.8235671520233154, 1.1657326221466064, 1.8595250844955444, 3.8297266960144043, 2.1039063930511475, 1.8193943500518799, 3.4999403953552246, 3.0795412063598633, 2.5300464630126953, 0.7859005331993103, 0.8537624478340149, 2.3040342330932617, 2.064584732055664, 14.415895462036133, -46.54961395263672], [0.0014535188674926758, 0.08930864930152893, -0.08604046702384949, -0.09615024924278259, -0.006767407059669495, 0.1206800788640976, -0.08057889342308044, 0.033428117632865906, 0.02950785681605339, 0.02559669502079487, -0.10554467141628265, 0.03275167942047119, -0.045352354645729065, 0.10824151337146759, 0.11568818986415863, -0.1122036725282669, 0.03743872046470642, 0.1071634590625763, 0.024905964732170105, -0.07643793523311615, 0.0041413456201553345, -0.07986723631620407, 0.08732113242149353, -0.05806355178356171, -0.03588700294494629, -0.014566853642463684, -0.10862265527248383, 0.08757124841213226, 0.010648980736732483, -0.11983984708786011, -0.05714206397533417, -0.14630381762981415, -0.10453067719936371, 0.019100993871688843, -0.006839349865913391, -0.013512149453163147, -0.06961552798748016, -0.0972108244895935, 0.03020508587360382, -0.14032728970050812, -0.07701899111270905, 0.11481249332427979, 0.08861902356147766, 0.08998779207468033, -0.06054486334323883, 0.08413942158222198, 0.00029139284742996097, -0.09942024946212769, 0.11265379190444946, -0.06601187586784363, 0.07728751748800278, 0.0070674121379852295, -0.08747565746307373, -0.08653193712234497, 0.1078534722328186, -0.0504816472530365, -0.06530511379241943, 0.014843390323221684, -0.06844119727611542, -0.056947678327560425, 0.08596649765968323, -0.11821229755878448, -0.06838776171207428, -0.10781845450401306], [-0.11896467953920364, -0.05178544670343399, -0.08824711292982101, -0.027660682797431946, -0.019629042595624924, 0.04109426960349083, -0.114276222884655, -0.050479914993047714, -0.12054940313100815, -0.15649014711380005, -0.15506376326084137, 0.02439712919294834, -0.03943111002445221, 0.11615311354398727, -0.17994356155395508, -0.0824180543422699, -0.03627445176243782, 0.05384344980120659, -0.06402472406625748, 0.007212524302303791, 0.08730611950159073, 0.008807032369077206, 0.0441783182322979, 0.04417768865823746, -0.11191163212060928, -0.06517791002988815, -0.1436404585838318, 0.0015200187917798758, 0.04119608551263809, -0.01502220705151558, -0.04925655946135521, 0.05007229372859001, 0.04460231214761734, -0.005652667488902807, -0.083871029317379, -0.033139001578092575, -0.07720016688108444, -0.1746610552072525, -0.08364585041999817, -0.12074219435453415, -0.012049257755279541, 0.07435613870620728, 0.01274759229272604, -0.04119434952735901, -0.004409425426274538, -0.07007430493831635, -0.026739655062556267, 0.024424349889159203, -0.04916141927242279, -0.12158606946468353, -0.040272314101457596, -0.12478385120630264, -0.09683561325073242, -0.0877036303281784, -0.05646306276321411, -0.06654658913612366, -0.09038273245096207, 0.0209155585616827, -0.0343136265873909, 0.10277564078569412, 0.0406888946890831, 0.0567610003054142, -0.059088096022605896, -0.006516896188259125], [-0.06256164610385895, -0.06085500493645668, 0.05935429036617279, 0.024414846673607826, -0.0010522383963689208, 0.06930866092443466, -0.12047021090984344, -0.08451980352401733, 0.05984053388237953, 0.046269819140434265, 0.07888418436050415, -0.008693351410329342, 0.03499641641974449, 0.036656249314546585, 0.000553784251678735, 0.029941873624920845, -0.02397747151553631, -0.07351119816303253, -0.008622461929917336, 0.008594207465648651, -0.10443311184644699, -0.14459973573684692, 0.033532969653606415, -0.10069365799427032, -0.07186847180128098, -0.03603599965572357, 0.07415091246366501, 0.11427436769008636, -0.07984746247529984, -0.08616063743829727, -0.12294411659240723, -0.021338753402233124, -0.05354464426636696, 0.08533117920160294, 0.03695071116089821, -0.00842923205345869, -0.03509209305047989, -0.11330616474151611, 0.023488393053412437, -0.05707002431154251, -0.06923336535692215, 0.00279872864484787, -0.0228022001683712, 0.023708179593086243, 0.017934037372469902, -0.008197738789021969, -0.0707646831870079, -0.006410806905478239, -0.12327871471643448, -0.04241829365491867, 0.012549575418233871, -0.12952826917171478, -0.17428289353847504, 0.006779256742447615, -0.08659540116786957, 0.04634620249271393, 0.041207071393728256, -0.12415006011724472, -0.024997957050800323, 0.04003050550818443, 0.01796133443713188, 0.12385520339012146, -0.061073727905750275, -0.006689453963190317], [7.171815872192383, 6.393650531768799, 5.794912815093994, 8.027911186218262, 6.850638389587402, 6.470757007598877, 6.906311988830566, 6.543168067932129, 6.5299153327941895, 8.314406394958496, 6.276232719421387, 6.628089427947998, 6.985648155212402, 6.603521823883057, 8.13956356048584, 6.827737331390381, 6.627273082733154, 6.781610012054443, 6.571217060089111, 6.695309162139893, 6.603643417358398, 11.734871864318848, 6.268459796905518, 8.1089506149292, 6.354623317718506, -44.17265701293945, 6.418506145477295, 6.8803887367248535, 5.824779510498047, 6.6692633628845215, 8.947689056396484, 11.401131629943848, 6.93344783782959, 6.725024223327637, 6.843769550323486, 8.170282363891602, 6.81904411315918, 6.809829235076904, 6.484358787536621, 6.674352169036865, 6.593724250793457, 6.599560737609863, 6.700157165527344, 8.54031753540039, 6.609258651733398, 6.867506980895996, 12.114455223083496, 8.669224739074707, 6.562851428985596, 6.800370216369629, 5.955612659454346, 6.523517608642578, 8.672409057617188, 6.933542251586914, 6.612789154052734, 9.217002868652344, 7.31083869934082, 6.624499320983887, 6.561648845672607, 6.6982550621032715, 6.663177967071533, 6.668268203735352, 12.990639686584473, -43.055171966552734], [0.029582606628537178, -0.14978823065757751, -0.17742985486984253, -0.11480911821126938, 0.044706664979457855, -0.17695321142673492, -0.1136147752404213, 0.07358461618423462, -0.005869612563401461, 0.023860905319452286, -0.1835710108280182, -0.07785487920045853, 0.053558263927698135, -0.08125824481248856, -0.05524498224258423, -0.1884172260761261, -0.013334772549569607, -0.08467648178339005, -0.05435829237103462, 0.06270495802164078, -0.007212648633867502, -0.01461720373481512, -0.016672687605023384, 0.06863135099411011, -0.017110921442508698, 0.040803488343954086, -0.08412443846464157, -0.08084335178136826, -0.0554855652153492, -0.0036944784224033356, -0.1854228675365448, -0.15654030442237854, -0.0007602724363096058, 0.0585724413394928, -0.030355796217918396, -0.19935211539268494, -0.0762781873345375, 0.0007924364181235433, -0.10410842299461365, 0.0196096058934927, -0.04813459888100624, 0.08903510868549347, -0.00149173301178962, -0.008489579893648624, -0.04879428446292877, 0.10205026715993881, -0.07499736547470093, -0.02401314303278923, 0.023350782692432404, -0.1252589225769043, -0.07904691249132156, -0.0288271252065897, -0.003536430187523365, 0.02932504191994667, -0.01929088495671749, -0.06718575209379196, -0.0250492375344038, -0.1033921018242836, -0.05845848470926285, -0.003209661925211549, 0.007232391741126776, 0.03429858759045601, -0.13299332559108734, -0.13899338245391846], [0.7018768787384033, 0.038296837359666824, -0.6790493726730347, 3.2383298873901367, -0.6065112948417664, -0.6035138368606567, 0.5416794419288635, -0.04464849457144737, -0.13398170471191406, 3.892460584640503, 0.055994316935539246, 0.5570304989814758, -0.3574853837490082, -0.9838487505912781, 4.377586364746094, 0.3140402138233185, -0.21066077053546906, 0.3716089725494385, 0.5546078681945801, -0.5172425508499146, -0.37737083435058594, 21.219404220581055, 0.9910154938697815, 2.994149923324585, 0.8114953637123108, -34.32030487060547, 0.5419386029243469, -0.7483615875244141, -0.635011613368988, 0.701710045337677, 3.884352207183838, 19.82042121887207, 0.8219836950302124, -0.22623369097709656, -0.30737102031707764, 4.42611026763916, 0.027888379991054535, -0.13233177363872528, -0.8400633931159973, 0.4450508952140808, -0.21338607370853424, 0.9842536449432373, -0.38646987080574036, 4.541957855224609, -0.8877464532852173, -0.4228177070617676, 21.361040115356445, 4.792873859405518, 1.1348751783370972, -0.5799533128738403, 0.4891364276409149, 0.556555449962616, 4.485903739929199, 1.068713665008545, -0.16645513474941254, 4.466453552246094, 2.6882455348968506, 0.8988159894943237, -1.042661190032959, -0.6813861131668091, -0.40553557872772217, 0.5720086693763733, 22.372209548950195, -47.072181701660156], [-0.03341875225305557, 0.06772027909755707, -0.09302370995283127, -0.00890915933996439, -0.13406391441822052, 0.10920009762048721, -0.08892364054918289, -0.1490108221769333, -0.0472855307161808, -0.13653619587421417, -0.09666500985622406, 0.013166786171495914, -0.1455872654914856, -0.10579100996255875, -0.07369904965162277, 0.08759657293558121, -0.07045893371105194, 0.05256936326622963, -0.15486955642700195, -0.09688928723335266, 0.07133813947439194, -0.11978509277105331, -0.08865809440612793, 0.025454295799136162, -0.12815812230110168, 0.05875546485185623, -0.05148032307624817, -0.061417169868946075, 0.04558410122990608, -0.13156069815158844, -0.12987275421619415, 0.024371834471821785, -0.13119293749332428, 0.08399966359138489, -0.02245013788342476, -0.1251375675201416, -0.13868704438209534, -0.049867063760757446, -0.03884151577949524, -0.027164023369550705, -0.12898372113704681, 0.050148218870162964, -0.03303629904985428, -0.0300749484449625, -0.09504242986440659, -0.10345897823572159, -0.08916793763637543, -0.08985532075166702, -0.1449299305677414, 0.024936430156230927, -0.11239475756883621, -0.15245312452316284, -0.07879147678613663, -0.026793984696269035, -0.010615060105919838, 0.07636640965938568, -0.008494006469845772, -0.13444727659225464, -0.03404846787452698, -0.02774411253631115, 0.04630596935749054, 0.03599495440721512, -0.1404499113559723, -0.13604456186294556], [7.206572532653809, 6.8576507568359375, 5.920710563659668, 8.269399642944336, 7.080928802490234, 6.814895153045654, 7.079989433288574, 6.837327480316162, 6.439068794250488, 8.54835319519043, 6.54487419128418, 6.930480003356934, 7.171117782592773, 6.800634860992432, 8.488690376281738, 7.011995792388916, 6.780698776245117, 6.80819845199585, 6.883817195892334, 7.074518203735352, 6.778357982635498, 11.91408920288086, 6.711629390716553, 8.240716934204102, 6.731242656707764, -43.91162109375, 6.684690475463867, 7.003525733947754, 5.786571502685547, 6.832644462585449, 9.069849014282227, 11.426657676696777, 7.092780590057373, 7.03966760635376, 6.8572235107421875, 8.611068725585938, 6.998636245727539, 6.992124557495117, 6.978447437286377, 7.0015153884887695, 6.893599987030029, 7.044899940490723, 6.950028896331787, 8.754111289978027, 6.902141094207764, 6.870724678039551, 12.38508415222168, 8.74610710144043, 6.9895405769348145, 7.013743877410889, 6.014286518096924, 6.888031959533691, 8.776031494140625, 7.25770378112793, 6.727235794067383, 9.405763626098633, 7.528539657592773, 6.687005043029785, 6.9248223304748535, 6.988916397094727, 6.781999111175537, 6.801344871520996, 13.026826858520508, -42.89937973022461], [0.04935251921415329, 0.05430053174495697, -0.09287968277931213, -0.113276407122612, -0.08550466597080231, -0.13044629991054535, -0.09640906006097794, -0.0042929318733513355, -0.1437867134809494, 0.007396001368761063, -0.00931567046791315, -0.09223638474941254, -0.10047546029090881, -0.1001729890704155, -0.014189810492098331, 0.07556762546300888, 0.11693883687257767, -0.1014990359544754, -0.18535344302654266, -0.021135663613677025, 0.036416806280612946, -0.04055400192737579, 0.03931010141968727, -0.14982952177524567, -0.11632730811834335, -0.10255502909421921, -0.06992505490779877, -0.06595639884471893, 0.043420322239398956, 0.043433498591184616, -0.030492039397358894, -0.16671445965766907, -0.1688324511051178, -0.09917493909597397, -0.06810463964939117, -0.09728294610977173, -0.019793886691331863, 0.06837349385023117, -0.06271819025278091, 0.08124382048845291, -0.12044217437505722, -0.08695181459188461, -0.10046819597482681, -0.1446024477481842, -0.040678322315216064, -0.13102000951766968, -0.027499856427311897, -0.03700524568557739, 0.06409578770399094, -0.07317028194665909, -0.07112283259630203, 0.0027685624081641436, 0.0071310922503471375, -0.1270155906677246, 0.01892125979065895, 0.04151657223701477, 0.005341988522559404, -0.07275429368019104, -0.11414183676242828, -0.0033017490059137344, -0.0947469100356102, 0.05626573786139488, 0.03171585872769356, -0.11258810013532639], [-4.217121601104736, -7.520394802093506, -9.942930221557617, 0.5848243832588196, -7.665274143218994, -9.170255661010742, -5.517177104949951, -7.566025257110596, -8.674518585205078, 2.4165236949920654, -8.047298431396484, -7.099595069885254, -6.779031276702881, -8.280316352844238, 2.569072961807251, -5.189414978027344, -7.918957710266113, -5.833291530609131, -5.256712913513184, -7.9195685386657715, -7.75976037979126, 16.553462982177734, -6.223899841308594, 1.2565720081329346, -5.752638816833496, 2.69262433052063, -5.920567512512207, -8.287837028503418, -9.594806671142578, -5.213963985443115, 3.9822309017181396, 17.127458572387695, -4.5557942390441895, -6.917051792144775, -7.993833065032959, 2.428642511367798, -7.698073863983154, -7.519924640655518, -9.320298194885254, -6.789426803588867, -8.651670455932617, -4.769989013671875, -7.77101993560791, 3.0756964683532715, -8.370718002319336, -8.213659286499023, 17.640518188476562, 3.4724926948547363, -4.587033271789551, -7.234269618988037, -6.41719388961792, -6.470980644226074, 3.6116812229156494, -4.956075191497803, -8.738348960876465, 4.837832450866699, -0.9854316711425781, -6.0770063400268555, -8.71435546875, -8.242976188659668, -8.465926170349121, -5.601461887359619, 18.618295669555664, 3.790186643600464], [7.167116641998291, 6.72022008895874, 6.147375106811523, 8.242457389831543, 7.026497840881348, 6.7822370529174805, 6.851912975311279, 6.6450700759887695, 6.506407737731934, 8.237370491027832, 6.702794551849365, 6.514607906341553, 6.954061985015869, 6.874884128570557, 8.118535995483398, 7.113429546356201, 6.732602596282959, 6.760201930999756, 6.796584129333496, 6.910317420959473, 6.803393840789795, 11.799540519714355, 6.354198455810547, 8.29207706451416, 6.477266311645508, -44.1668701171875, 6.669943809509277, 7.175246715545654, 5.981504440307617, 6.68222713470459, 9.078180313110352, 11.474157333374023, 7.126749515533447, 6.893166542053223, 6.916938304901123, 8.282443046569824, 6.982188701629639, 6.918819427490234, 6.75319242477417, 6.776073932647705, 6.814429759979248, 6.735225677490234, 6.8074164390563965, 8.579856872558594, 6.955920696258545, 6.884007930755615, 12.175435066223145, 8.710567474365234, 6.743100643157959, 7.0005950927734375, 6.383315086364746, 6.760446071624756, 8.627537727355957, 7.139130592346191, 6.740431785583496, 9.368700981140137, 7.371423721313477, 6.758082389831543, 6.828197956085205, 6.796497344970703, 6.681511878967285, 6.78376579284668, 12.851194381713867, -42.88709259033203], [0.6838974952697754, 0.0925908163189888, -1.1506050825119019, 3.2321858406066895, -0.5833343267440796, -0.7118114829063416, 0.45729440450668335, 0.19978336989879608, -0.5359156727790833, 4.0451436042785645, -0.07631765305995941, 0.5316535830497742, -0.44546499848365784, -0.8761293888092041, 4.5861124992370605, 0.45479586720466614, -0.07846646755933762, 0.515837550163269, 0.5285438299179077, -0.5842902064323425, -0.4852507412433624, 21.00786018371582, 1.0462054014205933, 3.1256628036499023, 0.8581270575523376, -34.49361038208008, 0.5841038227081299, -0.8150518536567688, -1.017769694328308, 0.6484929919242859, 4.011713981628418, 19.580883026123047, 0.7617101669311523, -0.20169982314109802, -0.3253275156021118, 4.577460289001465, -0.03591183200478554, -0.18634995818138123, -0.6547331213951111, 0.3214794993400574, -0.25154972076416016, 0.9989112019538879, -0.6306557059288025, 4.58634090423584, -0.7616845369338989, -0.405639111995697, 21.76845932006836, 5.2132954597473145, 1.1532906293869019, -0.5745994448661804, 0.4744800627231598, 0.28580963611602783, 4.8668999671936035, 1.0323001146316528, -0.10047172009944916, 4.527679920196533, 2.853123426437378, 1.1578376293182373, -0.9552015066146851, -0.6838895082473755, -0.44366875290870667, 0.5284144282341003, 22.53359603881836, -47.06159210205078], [6.850622653961182, 6.144781589508057, 5.643571376800537, 7.888725280761719, 6.546880722045898, 6.236340522766113, 6.650672912597656, 6.290989398956299, 6.247227191925049, 7.979525566101074, 6.125146389007568, 6.330565452575684, 6.681102752685547, 6.317340850830078, 7.973836421966553, 6.693362712860107, 6.317027568817139, 6.444450378417969, 6.432538986206055, 6.6508097648620605, 6.575745105743408, 11.937237739562988, 6.056177616119385, 7.788680076599121, 6.176251411437988, -44.41963577270508, 6.144106388092041, 6.4926581382751465, 5.518328666687012, 6.288877487182617, 8.706101417541504, 11.428635597229004, 6.877326965332031, 6.455141067504883, 6.518920421600342, 8.044620513916016, 6.370805263519287, 6.7026519775390625, 6.420748710632324, 6.2471795082092285, 6.332557201385498, 6.322452068328857, 6.375347137451172, 8.322521209716797, 6.312509536743164, 6.365382671356201, 12.264029502868652, 8.318350791931152, 6.4835205078125, 6.588502883911133, 6.003998279571533, 6.211546421051025, 8.40340518951416, 6.842185974121094, 6.3053388595581055, 8.903654098510742, 6.923303127288818, 6.503238201141357, 6.322452545166016, 6.563373565673828, 6.338292598724365, 6.398900032043457, 12.996296882629395, -43.52606964111328], [-3.83184552192688, -7.554531097412109, -8.618634223937988, 0.10123145580291748, -7.522225379943848, -9.006054878234863, -5.311995029449463, -7.610307693481445, -7.3567094802856445, 0.9011273980140686, -7.739933967590332, -6.68510627746582, -6.555969715118408, -7.555907726287842, 1.3921808004379272, -4.552075386047363, -7.859545707702637, -5.557961940765381, -5.305243968963623, -7.492410182952881, -7.454286575317383, 16.321365356445312, -6.0706467628479, 0.22447079420089722, -5.60582160949707, 1.3870283365249634, -5.770077228546143, -8.063254356384277, -8.867698669433594, -5.042198657989502, 2.196709632873535, 16.271238327026367, -4.064764976501465, -6.887032985687256, -7.594995498657227, 1.3094755411148071, -7.474498271942139, -7.2118353843688965, -9.176908493041992, -6.769717693328857, -8.614182472229004, -4.288388252258301, -7.961545944213867, 1.4868690967559814, -7.97246789932251, -8.207161903381348, 15.5538911819458, 2.0486395359039307, -4.5294013023376465, -7.111520290374756, -5.283274173736572, -6.480330944061279, 2.0327396392822266, -4.807866096496582, -8.598194122314453, 3.1555681228637695, -1.9119173288345337, -5.948126792907715, -8.877037048339844, -8.079512596130371, -7.437881946563721, -5.108890056610107, 16.214664459228516, 2.858234167098999], [-2.7968623638153076, -7.3097028732299805, -8.75700569152832, 2.037452220916748, -7.185208320617676, -9.44237232208252, -4.54901123046875, -7.443295001983643, -7.045044898986816, 3.147695541381836, -8.047517776489258, -6.822017669677734, -6.053011894226074, -8.199931144714355, 3.861966371536255, -4.341996669769287, -7.873013019561768, -5.256052017211914, -4.797915458679199, -7.739522933959961, -7.2641987800598145, 16.014461517333984, -5.990005970001221, 2.161862850189209, -5.369349002838135, 3.104994058609009, -5.241387844085693, -8.160552978515625, -9.23164176940918, -4.629082679748535, 4.700443267822266, 16.591339111328125, -3.122452974319458, -6.486691474914551, -6.921494483947754, 3.554596424102783, -7.388397216796875, -6.58002233505249, -9.899296760559082, -6.173152446746826, -8.815865516662598, -4.304250240325928, -7.5058488845825195, 4.069220542907715, -8.019287109375, -7.746140003204346, 16.661527633666992, 4.838254451751709, -3.802091121673584, -6.453275680541992, -5.258121013641357, -6.249574661254883, 4.757686614990234, -4.0625410079956055, -8.679222106933594, 5.798712253570557, 0.15016186237335205, -4.422722339630127, -8.443443298339844, -8.046863555908203, -6.774295806884766, -4.901981353759766, 18.333105087280273, 3.806586980819702], [7.299478530883789, 6.653416633605957, 6.0996222496032715, 8.20070743560791, 6.856105327606201, 6.574479103088379, 7.082907676696777, 6.619836807250977, 6.560623645782471, 8.363225936889648, 6.493070125579834, 6.774587154388428, 7.165769100189209, 6.745222091674805, 8.240001678466797, 6.91021203994751, 6.621831893920898, 6.843716621398926, 6.763644695281982, 7.031613826751709, 6.839869976043701, 11.869919776916504, 6.4358344078063965, 8.25262451171875, 6.5810627937316895, -43.937862396240234, 6.535802841186523, 7.094398021697998, 5.716876983642578, 6.830008029937744, 8.947620391845703, 11.505136489868164, 7.047268390655518, 7.105867385864258, 7.023437023162842, 8.498879432678223, 6.904279708862305, 6.985330104827881, 6.849313735961914, 6.740893840789795, 6.6699018478393555, 6.9061713218688965, 6.7290167808532715, 8.600164413452148, 7.035078048706055, 6.8903021812438965, 12.261941909790039, 8.639618873596191, 6.9161553382873535, 6.883894920349121, 6.1254448890686035, 6.756052017211914, 8.797767639160156, 7.169386863708496, 6.595688343048096, 9.376785278320312, 7.454608917236328, 6.708773136138916, 6.660316467285156, 6.834521770477295, 6.664746284484863, 6.812471866607666, 12.926410675048828, -42.85905838012695], [0.24641770124435425, -1.0413001775741577, -2.1352388858795166, 3.3822669982910156, -1.110127568244934, -2.2558274269104004, -0.3979044258594513, -1.1017391681671143, -0.9747616648674011, 4.6450324058532715, -1.1275793313980103, -0.8008962869644165, -0.4006061851978302, -1.6517750024795532, 4.169520854949951, 0.4304819107055664, -1.1515446901321411, -0.42991185188293457, -0.11399658024311066, -1.5164586305618286, -1.3682787418365479, 23.48810577392578, -0.025723932310938835, 3.717837333679199, -0.06385893374681473, -25.311267852783203, -0.5233915448188782, -1.1815931797027588, -2.3253912925720215, -0.17469632625579834, 4.876766204833984, 23.0452880859375, 0.36453109979629517, -0.573273777961731, -1.316145896911621, 4.607101917266846, -0.7813195586204529, -0.8632082343101501, -1.8944233655929565, -0.16098207235336304, -1.7831836938858032, 0.17252641916275024, -0.7638782858848572, 4.873040676116943, -1.370320200920105, -1.427672266960144, 23.396995544433594, 4.3752360343933105, 0.10278616845607758, -0.7775307297706604, 0.48552197217941284, 0.019738299772143364, 5.068576335906982, 0.4179548919200897, -1.589012622833252, 5.353130340576172, 2.792357921600342, -0.4335598647594452, -2.060741662979126, -1.2800383567810059, -1.0673725605010986, -0.11033361405134201, 24.929092407226562, -38.27052307128906], [0.5963655114173889, 0.25983530282974243, -0.7094722390174866, 3.118561267852783, -0.3391484022140503, -0.38084107637405396, 0.6545739769935608, 0.27520641684532166, -0.19214661419391632, 3.9804282188415527, 0.13095994293689728, 0.6578618288040161, -0.09620996564626694, -0.6501085758209229, 4.40188455581665, 0.6671162843704224, -0.10935790836811066, 0.5962084531784058, 0.7216745018959045, -0.3016010522842407, -0.2763800621032715, 20.030710220336914, 1.1763615608215332, 3.0816519260406494, 1.143699288368225, -34.80203628540039, 0.6620310544967651, -0.5370652675628662, -0.6429635286331177, 0.8088068962097168, 3.9721384048461914, 18.695755004882812, 0.6481020450592041, 0.04421692714095116, -0.15286272764205933, 4.404611110687256, 0.11924967169761658, 0.003606724087148905, -0.4863818883895874, 0.715017557144165, 0.00465198652818799, 1.0548428297042847, -0.47344261407852173, 4.557868003845215, -0.6352056860923767, -0.2690885663032532, 20.93498420715332, 4.6071295738220215, 1.1849783658981323, -0.32704412937164307, 0.5834430456161499, 0.5003281235694885, 4.743066787719727, 1.00551438331604, -0.16595850884914398, 4.59853458404541, 2.9936814308166504, 1.070791482925415, -0.8281260132789612, -0.4053032398223877, -0.1501549780368805, 0.7959800958633423, 21.261110305786133, -47.03217315673828], [6.854278087615967, 6.317566394805908, 5.743487358093262, 7.946817398071289, 6.7500996589660645, 6.5055131912231445, 6.57363224029541, 6.341530799865723, 6.222660064697266, 8.08993911743164, 6.357415676116943, 6.329442977905273, 6.695563316345215, 6.481751918792725, 7.906841278076172, 6.631765365600586, 6.364769458770752, 6.570804119110107, 6.363741397857666, 6.549126625061035, 6.502974033355713, 12.191125869750977, 6.032366752624512, 7.780691623687744, 6.306313514709473, -44.3482666015625, 6.4040632247924805, 6.596629619598389, 5.554272651672363, 6.424295902252197, 8.606958389282227, 11.618339538574219, 6.741551399230957, 6.6135640144348145, 6.436172008514404, 8.161388397216797, 6.573797225952148, 6.73887300491333, 6.435712814331055, 6.459899425506592, 6.324052810668945, 6.449691295623779, 6.388894081115723, 8.398133277893066, 6.373349666595459, 6.4792256355285645, 12.394758224487305, 8.362299919128418, 6.525820255279541, 6.532644271850586, 6.0793776512146, 6.428321361541748, 8.544906616210938, 6.728420257568359, 6.452442646026611, 8.968936920166016, 7.067318916320801, 6.689549446105957, 6.441249370574951, 6.511297702789307, 6.510508060455322, 6.304728031158447, 13.174477577209473, -43.557193756103516], [7.278157711029053, 6.637964248657227, 5.844905376434326, 8.169187545776367, 6.965908527374268, 6.552585601806641, 7.058808326721191, 6.631786823272705, 6.488343238830566, 8.419992446899414, 6.440612316131592, 6.801011085510254, 7.239822864532471, 6.649028778076172, 8.207696914672852, 6.959756851196289, 6.615615367889404, 6.703190803527832, 6.883580207824707, 6.838390350341797, 6.7610764503479, 11.712358474731445, 6.354197025299072, 8.17184829711914, 6.525277614593506, -43.766448974609375, 6.674437522888184, 6.948523998260498, 5.725032329559326, 6.857639312744141, 9.013256072998047, 11.271796226501465, 7.121754169464111, 7.045341968536377, 6.761427402496338, 8.396672248840332, 6.974516868591309, 6.877735614776611, 6.69766092300415, 6.829484939575195, 6.577104568481445, 6.8823323249816895, 6.839238166809082, 8.715070724487305, 7.084601402282715, 6.989789962768555, 12.081991195678711, 8.567935943603516, 6.747647762298584, 6.9559712409973145, 6.209733009338379, 6.719274044036865, 8.735840797424316, 7.033459186553955, 6.745899677276611, 9.257168769836426, 7.460853576660156, 6.603589057922363, 6.7576518058776855, 6.914689064025879, 6.642276763916016, 6.772917747497559, 12.732510566711426, -42.79314041137695], [6.900421142578125, 6.351596355438232, 5.645832061767578, 8.05085277557373, 6.646976947784424, 6.11820125579834, 6.55516242980957, 6.290950775146484, 6.437624931335449, 8.285722732543945, 6.280036449432373, 6.465191841125488, 6.591709136962891, 6.401036739349365, 8.078702926635742, 6.57921028137207, 6.3682379722595215, 6.3517022132873535, 6.507305145263672, 6.479401588439941, 6.5398640632629395, 12.41867733001709, 6.287191390991211, 7.793642044067383, 6.2718329429626465, -43.83680725097656, 6.365052223205566, 6.712817192077637, 5.592227458953857, 6.459256172180176, 8.661752700805664, 11.96115493774414, 6.9921793937683105, 6.534339427947998, 6.559178829193115, 8.169427871704102, 6.520308971405029, 6.846376419067383, 6.5250020027160645, 6.611733913421631, 6.650367259979248, 6.584181785583496, 6.437682151794434, 8.535545349121094, 6.443023204803467, 6.440463542938232, 13.00670337677002, 8.544570922851562, 6.51165246963501, 6.592986583709717, 5.985551834106445, 6.386899471282959, 8.531088829040527, 6.763101577758789, 6.2811279296875, 9.092982292175293, 6.936239719390869, 6.777564525604248, 6.287907600402832, 6.384403705596924, 6.518514156341553, 6.325160503387451, 13.543614387512207, -42.919776916503906], [7.409798622131348, 6.835439682006836, 6.088497161865234, 8.453219413757324, 7.034008979797363, 6.874990463256836, 7.172799110412598, 6.722476482391357, 6.704530715942383, 8.364919662475586, 6.751763343811035, 6.74631929397583, 7.081417560577393, 6.997617721557617, 8.320157051086426, 7.228912830352783, 6.7821760177612305, 6.965546131134033, 6.8742194175720215, 7.01108455657959, 6.931758403778076, 11.652819633483887, 6.527368545532227, 8.431760787963867, 6.710049629211426, -44.06005096435547, 6.78871488571167, 7.185356140136719, 6.005401134490967, 6.834929943084717, 9.150833129882812, 11.336546897888184, 7.2492852210998535, 7.179027080535889, 6.909428596496582, 8.671026229858398, 7.060863494873047, 7.048076152801514, 6.947237491607666, 7.042813301086426, 6.92539119720459, 6.919167518615723, 6.866915225982666, 8.627511024475098, 7.17324161529541, 7.053429126739502, 12.110261917114258, 8.673800468444824, 6.980519771575928, 7.216074466705322, 6.211789131164551, 6.915231227874756, 8.762628555297852, 7.2788801193237305, 6.848090648651123, 9.512545585632324, 7.623707294464111, 6.833376884460449, 6.987028121948242, 7.106048107147217, 6.874436855316162, 7.008099555969238, 12.74782657623291, -42.99303436279297], [2.028066873550415, 2.29005765914917, 2.200768232345581, 1.1605134010314941, 2.3121414184570312, 2.3085687160491943, 2.1407389640808105, 2.1918840408325195, 2.0404367446899414, 0.7000796794891357, 2.0725576877593994, 2.0376508235931396, 2.1247458457946777, 2.230229377746582, 1.0964645147323608, 2.0366249084472656, 2.2453253269195557, 2.099241256713867, 1.915639042854309, 2.3573153018951416, 2.2388041019439697, -1.666378140449524, 1.8312019109725952, 1.1716629266738892, 1.9206743240356445, 0.5121948719024658, 2.175585985183716, 2.2101118564605713, 2.2648463249206543, 2.031350612640381, 0.8325086236000061, -1.620935082435608, 2.0805888175964355, 1.9594348669052124, 2.3450801372528076, 0.9126449823379517, 1.95502769947052, 2.2015552520751953, 2.331217050552368, 1.756346583366394, 2.373725652694702, 1.9050450325012207, 1.958915114402771, 0.7838971614837646, 2.1103196144104004, 2.1804652214050293, -1.5731806755065918, 0.8393240571022034, 1.950656533241272, 2.0902936458587646, 1.7255451679229736, 1.8691296577453613, 0.8955038189888, 1.8485069274902344, 2.2970783710479736, 0.8018962144851685, 1.3717296123504639, 1.7910621166229248, 2.3648061752319336, 2.20389723777771, 2.1474084854125977, 1.805182695388794, -1.5061429738998413, 1.38346529006958], [7.094949245452881, 6.5679755210876465, 5.860079288482666, 8.21595287322998, 6.756197452545166, 6.421229362487793, 6.824404716491699, 6.444820404052734, 6.481704235076904, 8.310869216918945, 6.378276824951172, 6.69154167175293, 6.941593647003174, 6.564945697784424, 8.210829734802246, 6.9426188468933105, 6.653397083282471, 6.702408313751221, 6.677504539489746, 6.846688270568848, 6.644913673400879, 12.1683931350708, 6.611997604370117, 8.215193748474121, 6.667856693267822, -43.82080841064453, 6.6440277099609375, 6.9361701011657715, 5.733423233032227, 6.744543552398682, 8.950840950012207, 11.74138069152832, 7.085366249084473, 6.75783634185791, 6.8683085441589355, 8.498586654663086, 6.9250288009643555, 7.047668933868408, 6.707864284515381, 6.927079200744629, 6.81893253326416, 6.626461029052734, 6.596185684204102, 8.671703338623047, 6.845016002655029, 6.7178168296813965, 12.507920265197754, 8.753816604614258, 6.861030101776123, 6.892977714538574, 6.009894371032715, 6.678215980529785, 8.740229606628418, 7.135417938232422, 6.613611221313477, 9.176624298095703, 7.240856647491455, 6.774667263031006, 6.745882034301758, 6.675797462463379, 6.6238298416137695, 6.790290832519531, 13.295209884643555, -42.675865173339844], [7.240405082702637, 6.586911201477051, 5.936851978302002, 8.263160705566406, 6.930200576782227, 6.648697853088379, 7.0487236976623535, 6.628691673278809, 6.5614776611328125, 8.484478950500488, 6.5027899742126465, 6.60313081741333, 6.9815545082092285, 6.614866733551025, 8.304689407348633, 7.105431079864502, 6.607973098754883, 6.686095714569092, 6.870110034942627, 6.808675765991211, 6.827365398406982, 11.726404190063477, 6.516346454620361, 8.236385345458984, 6.621321678161621, -43.826969146728516, 6.709491729736328, 7.028186798095703, 5.899923324584961, 6.862964630126953, 9.036710739135742, 11.415841102600098, 7.129710674285889, 7.027154922485352, 6.97175407409668, 8.517012596130371, 6.7605156898498535, 6.918652534484863, 6.727596282958984, 6.873790264129639, 6.711469650268555, 6.79782772064209, 6.794524669647217, 8.620667457580566, 6.847749710083008, 6.708806037902832, 12.235079765319824, 8.650001525878906, 6.827945232391357, 6.878316402435303, 6.149016857147217, 6.865540504455566, 8.763181686401367, 7.192886829376221, 6.633378028869629, 9.273401260375977, 7.404812335968018, 6.761856555938721, 6.727489948272705, 6.913717269897461, 6.732663631439209, 6.726631164550781, 12.722723960876465, -43.07829666137695], [7.358288288116455, 6.540055751800537, 5.876980304718018, 8.3632230758667, 6.903923034667969, 6.6265058517456055, 6.793294429779053, 6.5282182693481445, 6.483249664306641, 8.542097091674805, 6.391067028045654, 6.675638198852539, 6.961793422698975, 6.657411098480225, 8.193467140197754, 7.012102127075195, 6.739120960235596, 6.717834949493408, 6.755352973937988, 6.769880771636963, 6.734326362609863, 12.402522087097168, 6.592862606048584, 8.245260238647461, 6.4629597663879395, -43.5307502746582, 6.673061847686768, 7.079229831695557, 5.7242937088012695, 6.762479305267334, 9.108107566833496, 11.938743591308594, 7.308040142059326, 6.918900012969971, 6.951544284820557, 8.464692115783691, 7.002971649169922, 7.029929161071777, 6.7974653244018555, 6.882700443267822, 6.7118306159973145, 6.66988468170166, 6.685243606567383, 8.629870414733887, 6.835777282714844, 6.903181552886963, 12.82912540435791, 8.774714469909668, 6.778203964233398, 7.066338062286377, 5.95361852645874, 6.847267150878906, 8.84500503540039, 7.169333457946777, 6.662500858306885, 9.433626174926758, 7.237843036651611, 6.938776969909668, 6.600378513336182, 6.716578960418701, 6.852477550506592, 6.654195785522461, 13.305806159973145, -42.646759033203125], [-2.290235757827759, -3.9585092067718506, -5.22053337097168, 2.2064945697784424, -5.387131690979004, -7.290801048278809, -1.7632488012313843, -5.190337181091309, -3.935908794403076, 3.2806429862976074, -4.79220724105835, -2.561669111251831, -3.7621984481811523, -6.493688106536865, 3.9498114585876465, -3.1226112842559814, -4.713925838470459, -2.0131754875183105, -1.622086524963379, -6.238317489624023, -5.690621852874756, 10.1469144821167, -1.7731561660766602, 2.041930675506592, -1.757248044013977, 2.255122184753418, -2.0808939933776855, -5.290425777435303, -6.805743217468262, -1.8095415830612183, 3.8578405380249023, 9.990107536315918, -2.269620180130005, -3.7090070247650146, -3.8705971240997314, 3.43888783454895, -4.370784282684326, -3.6598191261291504, -7.331557750701904, -2.9935989379882812, -5.856251239776611, -1.3746094703674316, -4.1803131103515625, 3.4980146884918213, -5.621710777282715, -4.300520896911621, 10.212494850158691, 4.389780044555664, -0.8909351229667664, -4.232748985290527, -4.910904884338379, -2.8579938411712646, 3.9961531162261963, -1.6080338954925537, -5.663819313049316, 4.418548107147217, 0.2802380621433258, -2.4398159980773926, -5.944125652313232, -5.101075649261475, -4.226818084716797, -1.7809685468673706, 9.9456787109375, 2.7783284187316895], [-4.861477375030518, -7.678012847900391, -10.080717086791992, 0.2682020962238312, -8.27536392211914, -9.51118278503418, -5.878675937652588, -8.249079704284668, -8.747568130493164, 1.3393235206604004, -8.098323822021484, -6.952923774719238, -6.899982929229736, -8.678948402404785, 1.706183671951294, -5.522851943969727, -8.400156021118164, -6.074679851531982, -5.4394211769104, -8.693885803222656, -8.384716987609863, 17.153194427490234, -6.373472690582275, 0.2803010642528534, -5.747703552246094, 3.3630971908569336, -6.13737154006958, -8.732758522033691, -10.721046447753906, -5.6574931144714355, 2.9119067192077637, 16.935504913330078, -5.314208984375, -7.035486698150635, -7.8952107429504395, 1.569393277168274, -8.25404167175293, -7.930998802185059, -10.202461242675781, -7.154756546020508, -9.52406120300293, -5.108325481414795, -8.215177536010742, 1.8199677467346191, -8.62961196899414, -8.444117546081543, 16.577028274536133, 2.693906307220459, -5.092306613922119, -7.636968612670898, -7.264669418334961, -6.8187103271484375, 2.5047171115875244, -5.713846683502197, -9.095273971557617, 3.742976188659668, -2.9968039989471436, -7.4144721031188965, -9.246562957763672, -8.682058334350586, -8.320399284362793, -5.582000255584717, 17.001867294311523, 3.8833975791931152], [6.980412483215332, 6.290002346038818, 5.8082051277160645, 8.058326721191406, 6.680287837982178, 6.552670478820801, 6.735311508178711, 6.388704299926758, 6.399849891662598, 8.109436988830566, 6.440841197967529, 6.487044811248779, 6.653417587280273, 6.459596157073975, 8.030668258666992, 6.746095180511475, 6.403192520141602, 6.435056686401367, 6.550593376159668, 6.649402618408203, 6.465067386627197, 12.163476943969727, 6.050279140472412, 7.913155555725098, 6.270872116088867, -44.269126892089844, 6.236042499542236, 6.648110389709473, 5.703891754150391, 6.510591506958008, 8.652106285095215, 11.702550888061523, 6.94923734664917, 6.507683277130127, 6.563974380493164, 8.087540626525879, 6.695927143096924, 6.621221542358398, 6.571141242980957, 6.501850605010986, 6.450347900390625, 6.603984832763672, 6.360620975494385, 8.43555736541748, 6.372638702392578, 6.447539806365967, 12.490572929382324, 8.619415283203125, 6.599982261657715, 6.551361560821533, 6.058681488037109, 6.445091247558594, 8.599604606628418, 6.77097225189209, 6.550398349761963, 8.88935661315918, 6.97576379776001, 6.735474586486816, 6.570331573486328, 6.701931476593018, 6.352063179016113, 6.343851566314697, 13.263467788696289, -43.501258850097656], [7.449795722961426, 6.762829780578613, 5.907031059265137, 8.433653831481934, 7.1412835121154785, 6.634655952453613, 7.000637531280518, 6.668223857879639, 6.615975379943848, 8.658055305480957, 6.6893205642700195, 6.893257141113281, 7.072447299957275, 6.663076877593994, 8.526177406311035, 7.153314590454102, 6.80061674118042, 6.798411846160889, 6.954833030700684, 6.911139011383057, 6.864504337310791, 12.064506530761719, 6.504170894622803, 8.495235443115234, 6.6502156257629395, -43.70100402832031, 6.565016746520996, 7.015021324157715, 5.8933939933776855, 6.8641276359558105, 9.281288146972656, 11.658644676208496, 7.303531169891357, 6.980501174926758, 7.052487373352051, 8.485591888427734, 7.112712383270264, 7.068559169769287, 6.725264549255371, 6.842737197875977, 6.8923211097717285, 6.9256181716918945, 6.906830310821533, 8.775218963623047, 7.028602600097656, 7.02983283996582, 12.543085098266602, 8.944494247436523, 6.942149639129639, 7.0977654457092285, 6.043031215667725, 6.978878021240234, 8.987139701843262, 7.2377471923828125, 6.843809604644775, 9.55604362487793, 7.445504188537598, 6.869803428649902, 6.898606777191162, 6.96428108215332, 6.957950592041016, 6.95122766494751, 13.284540176391602, -42.75299072265625], [7.0047430992126465, 6.1562981605529785, 5.826591491699219, 8.041711807250977, 6.795625686645508, 6.399731159210205, 6.807271957397461, 6.29526424407959, 6.403558254241943, 8.05930233001709, 6.293736934661865, 6.398192882537842, 6.722821235656738, 6.433846473693848, 7.898999214172363, 6.661229610443115, 6.52306604385376, 6.438789367675781, 6.462510585784912, 6.532581806182861, 6.690676212310791, 11.874582290649414, 6.216997146606445, 7.843830108642578, 6.170257091522217, -44.32101058959961, 6.368584156036377, 6.833351135253906, 5.581192493438721, 6.49933385848999, 8.6890869140625, 11.564678192138672, 6.981581687927246, 6.502242565155029, 6.621268272399902, 8.046018600463867, 6.744237422943115, 6.6271443367004395, 6.45802116394043, 6.4091949462890625, 6.500539302825928, 6.418652534484863, 6.502715110778809, 8.371334075927734, 6.450030326843262, 6.63520622253418, 12.255814552307129, 8.470563888549805, 6.445919036865234, 6.618345737457275, 5.912314414978027, 6.3146796226501465, 8.512168884277344, 6.690426826477051, 6.3678507804870605, 8.953812599182129, 7.102795600891113, 6.769079685211182, 6.461853981018066, 6.63193416595459, 6.356663227081299, 6.50224494934082, 13.138620376586914, -43.490299224853516], [7.273431301116943, 6.781336784362793, 6.083219528198242, 8.13873291015625, 7.1264424324035645, 6.97173547744751, 7.1195759773254395, 6.615634918212891, 6.5492706298828125, 8.358441352844238, 6.588737964630127, 6.747832775115967, 7.131532192230225, 6.941046714782715, 8.282282829284668, 7.0903778076171875, 6.872658729553223, 6.866979122161865, 6.851324558258057, 7.152605056762695, 7.160118103027344, 11.454246520996094, 6.433799743652344, 8.42108154296875, 6.664534568786621, -44.30348587036133, 6.580941677093506, 7.264681816101074, 6.082640647888184, 6.879570484161377, 8.929625511169434, 11.083467483520508, 7.032233715057373, 7.0089335441589355, 7.015814781188965, 8.398700714111328, 6.852967739105225, 6.971585750579834, 6.906586647033691, 6.731311798095703, 6.933094024658203, 6.9830803871154785, 6.9338154792785645, 8.449197769165039, 6.926888465881348, 6.892574310302734, 12.002337455749512, 8.63735294342041, 6.9231438636779785, 7.143058776855469, 6.2209038734436035, 6.868422985076904, 8.599151611328125, 7.119259834289551, 6.8957839012146, 9.337039947509766, 7.4421586990356445, 6.854504108428955, 7.013197422027588, 6.9349822998046875, 6.883366584777832, 6.82192325592041, 12.483705520629883, -43.17192077636719], [-3.8519539833068848, -7.403726577758789, -9.655646324157715, 0.8991380929946899, -7.382559776306152, -9.427316665649414, -5.108013153076172, -7.603090286254883, -7.975325107574463, 2.5278263092041016, -8.057999610900879, -6.704281330108643, -6.442670822143555, -8.09766960144043, 3.0002522468566895, -4.754289150238037, -7.834360122680664, -5.543067455291748, -5.106307506561279, -7.705904960632324, -7.58200740814209, 16.448579788208008, -5.838564395904541, 1.4582452774047852, -5.291757583618164, 2.888657569885254, -5.608882427215576, -8.282268524169922, -9.76873779296875, -4.9930195808410645, 4.061101913452148, 16.892982482910156, -4.0274977684021, -6.630417346954346, -7.5317277908325195, 2.8264753818511963, -7.4963812828063965, -7.1789116859436035, -9.46282958984375, -6.301739692687988, -8.70457935333252, -4.349660873413086, -7.707916259765625, 3.2354815006256104, -8.188803672790527, -7.871372222900391, 17.23664665222168, 3.9896481037139893, -4.277890682220459, -6.964913845062256, -5.7810378074646, -6.266152858734131, 4.196263313293457, -4.461671829223633, -8.508600234985352, 5.34084415435791, -0.6324979066848755, -5.082001686096191, -8.940903663635254, -8.157833099365234, -7.533978462219238, -5.062413692474365, 18.644460678100586, 3.7928388118743896], [6.404176712036133, 5.717629432678223, 6.055939674377441, 7.689652919769287, 6.306039810180664, 6.201837062835693, 6.19514799118042, 5.88840913772583, 6.231346607208252, 7.473861217498779, 6.294719219207764, 6.044745922088623, 6.055386066436768, 6.418513298034668, 7.528017997741699, 6.106380939483643, 6.115651607513428, 5.928431987762451, 5.914001941680908, 6.227576732635498, 6.1067891120910645, 12.733981132507324, 6.1355767250061035, 7.258293628692627, 5.920949935913086, -44.55032730102539, 5.847952842712402, 6.248967170715332, 5.806692123413086, 5.988389015197754, 8.251473426818848, 11.933924674987793, 6.404015064239502, 6.093801498413086, 6.240988254547119, 7.73508882522583, 6.167306423187256, 6.323028564453125, 6.094703674316406, 6.100649833679199, 6.248391151428223, 5.992773532867432, 5.979580879211426, 7.741828441619873, 5.914847373962402, 6.1143693923950195, 12.930927276611328, 8.106754302978516, 6.042369365692139, 6.132102012634277, 5.708516597747803, 5.869996547698975, 7.974615097045898, 6.2432756423950195, 5.945830345153809, 8.346115112304688, 6.543979644775391, 6.31206750869751, 6.076267719268799, 6.167583465576172, 6.255241394042969, 5.9212565422058105, 13.44926929473877, -44.13270950317383], [7.135162830352783, 6.524586200714111, 5.952694416046143, 8.174704551696777, 6.850249767303467, 6.554290294647217, 6.879501819610596, 6.386706352233887, 6.519670486450195, 8.352248191833496, 6.405946254730225, 6.51927375793457, 7.021256446838379, 6.7814154624938965, 8.285085678100586, 6.778987884521484, 6.452841758728027, 6.797008514404297, 6.7873992919921875, 6.839822769165039, 6.672663688659668, 12.136190414428711, 6.4059858322143555, 8.126248359680176, 6.444769382476807, -43.89924621582031, 6.411725044250488, 7.06928014755249, 5.716060161590576, 6.605239391326904, 8.868678092956543, 11.65164852142334, 7.0975847244262695, 6.903236389160156, 6.738951683044434, 8.376511573791504, 6.873720169067383, 6.934828281402588, 6.694162845611572, 6.843421459197998, 6.589275360107422, 6.632827281951904, 6.852148056030273, 8.458734512329102, 6.7846174240112305, 6.891214370727539, 12.72409725189209, 8.776374816894531, 6.633749961853027, 7.013920307159424, 6.1495890617370605, 6.720991611480713, 8.614201545715332, 7.1115217208862305, 6.64291524887085, 9.382686614990234, 7.279943943023682, 6.749758243560791, 6.669182300567627, 6.746519088745117, 6.670441627502441, 6.699832916259766, 13.356868743896484, -42.725311279296875]], "net.2.bias": [9.293525695800781, -0.12699732184410095, 2.8122401237487793, 8.854267120361328, 9.020840644836426, 9.17020320892334, 9.997091293334961, 3.859835147857666, 25.438974380493164, 8.951295852661133, 9.071794509887695, 8.827034950256348, 9.351231575012207, 9.271020889282227, 6.756041526794434, 4.801856994628906, 9.320231437683105, 8.970640182495117, 15.541439056396484, 7.965331077575684, 9.32465934753418, 9.354023933410645, 15.359048843383789, 9.083929061889648, 9.452098846435547, 8.943570137023926, 8.96286678314209, 9.260661125183105, 3.371699810028076, -0.14192575216293335, -0.1679147481918335, -0.11889886111021042, 9.348018646240234, -0.17096005380153656, 6.072644233703613, -0.2077661007642746, 9.71597957611084, -0.051302164793014526, 15.587197303771973, 9.216736793518066, 5.560887813568115, 8.459061622619629, 12.431612968444824, 15.58278751373291, 9.129207611083984, 9.842491149902344, 4.615220546722412, 8.915574073791504, 9.17905044555664, 9.005021095275879, 9.50678825378418, 2.2540197372436523, 9.246416091918945, 9.447393417358398, 9.258509635925293, 9.786394119262695, 13.385749816894531, 8.964905738830566, 9.577096939086914, 9.133849143981934, 8.99986457824707, 15.75353717803955, 9.08447551727295, 9.416657447814941], "net.4.weight": [[7.399940490722656, 0.006448460277169943, 2.3299262523651123, 7.620552062988281, 7.675314903259277, 7.4472126960754395, 3.384049654006958, 2.6634397506713867, -3.017465114593506, 7.621146202087402, 7.4578423500061035, 7.63105583190918, 7.601149082183838, 7.532104969024658, 3.870978832244873, 3.7267136573791504, 7.519771099090576, 7.359023094177246, 0.5694116353988647, 3.060370683670044, 7.639472484588623, 7.612008094787598, 1.2449489831924438, 7.616515636444092, 7.57555627822876, 7.582362651824951, 7.56980037689209, 7.609127998352051, 6.282031059265137, -0.05831995606422424, -0.003780008526518941, -0.055204927921295166, 7.561729431152344, 0.06923829019069672, 4.633364677429199, -0.06995561718940735, 7.634140491485596, 0.031514402478933334, 1.4627273082733154, 7.537510395050049, 4.455959320068359, 7.517871379852295, 1.632096290588379, -0.33761781454086304, 7.558788299560547, 3.0019664764404297, 4.967386722564697, 7.640946865081787, 7.59328556060791, 7.480290412902832, 7.648812294006348, -1.3563839197158813, 7.64470911026001, 7.5864129066467285, 7.375482082366943, 7.214242458343506, 4.605518817901611, 7.565319538116455, 7.37430477142334, 7.620375633239746, 7.673622131347656, 0.702255368232727, 7.360917091369629, 7.484699249267578], [6.603579521179199, 0.03948591277003288, 8.415807723999023, 6.60839319229126, 6.4318013191223145, 6.546821594238281, 9.037360191345215, 8.17131519317627, 4.664562702178955, 6.519745826721191, 6.634636878967285, 6.631433486938477, 6.620056629180908, 6.54599142074585, 9.555394172668457, -1.936592698097229, 6.512561321258545, 6.593263149261475, 4.125705718994141, 9.391160011291504, 6.509599685668945, 6.45454216003418, 4.379764556884766, 6.557924270629883, 6.5311479568481445, 6.591039657592773, 6.556636333465576, 6.595128536224365, 9.410543441772461, 0.01678474247455597, -0.06282084435224533, 0.1535114198923111, 6.449763298034668, -0.10545258224010468, 9.3391752243042, 0.03112557902932167, 6.484787940979004, 0.041848886758089066, 4.738231658935547, 6.573197841644287, 9.495737075805664, 6.787258148193359, 6.520015716552734, 4.014897346496582, 6.6238789558410645, 8.652595520019531, 9.897929191589355, 6.576939582824707, 6.575839042663574, 6.610225200653076, 6.472124099731445, -0.2797669470310211, 6.543823719024658, 6.576540470123291, 6.6243486404418945, 8.115874290466309, 5.832913398742676, 6.49597692489624, 6.509397506713867, 6.459070205688477, 6.551770210266113, 4.222278118133545, 6.4010820388793945, 6.448058605194092], [5.089004993438721, -0.05681556090712547, -1.7884666919708252, 5.077606201171875, 5.042753219604492, 4.636031627655029, -0.17301154136657715, -0.6551419496536255, -5.2804718017578125, 4.921017646789551, 5.162160396575928, 5.014834403991699, 4.960319519042969, 5.037416934967041, -0.36301860213279724, 6.412542343139648, 5.066925525665283, 4.6131591796875, -16.257888793945312, -0.29592669010162354, 4.981873035430908, 4.966303825378418, -15.866874694824219, 4.719505786895752, 5.012784957885742, 5.116440773010254, 5.078829288482666, 5.040088653564453, 0.811847984790802, -0.004909120965749025, 0.01438184455037117, -0.028755873441696167, 5.085819244384766, -0.03842619061470032, -0.2043352872133255, 0.08588308095932007, 4.933903694152832, -0.016588976606726646, -15.739222526550293, 5.026347637176514, -0.2598426938056946, 5.124192714691162, -14.961813926696777, -16.301010131835938, 5.068024158477783, -0.43305882811546326, -0.16357287764549255, 5.0430803298950195, 5.1207098960876465, 5.029521465301514, 4.974379062652588, 2.2952489852905273, 5.013801574707031, 4.979224681854248, 4.987447261810303, -14.197962760925293, -14.875229835510254, 4.974042892456055, 5.007314205169678, 4.9681901931762695, 5.025901794433594, -16.07673454284668, 4.667454242706299, 5.081483840942383], [6.844567775726318, 0.1462872475385666, 8.347978591918945, 6.905305862426758, 6.666447162628174, 6.791841506958008, 10.167994499206543, 11.157699584960938, 18.308006286621094, 6.875668048858643, 6.81965446472168, 6.851264953613281, 6.716336727142334, 6.886896133422852, 11.118698120117188, -0.68147212266922, 6.879247665405273, 6.6975507736206055, 8.47028923034668, 12.253790855407715, 6.752599716186523, 6.89176607131958, 7.971654415130615, 6.741570949554443, 6.795046329498291, 6.868448734283447, 6.9032063484191895, 6.670342445373535, 9.77549934387207, 0.09391295909881592, 0.018358668312430382, -0.08934930711984634, 6.760544776916504, -0.07643487304449081, 11.285042762756348, -0.0033915042877197266, 6.7152886390686035, 0.11044035106897354, 8.12010383605957, 6.825188159942627, 11.096248626708984, 6.964838981628418, 6.770760536193848, 8.002025604248047, 6.759579658508301, 10.323969841003418, 11.125496864318848, 6.864013195037842, 6.761007785797119, 6.843976020812988, 6.858299732208252, -0.7579401731491089, 6.722272872924805, 6.822587490081787, 6.661284923553467, 2.172154664993286, 9.324640274047852, 